#ifndef MODEL_PARAMETERS_H
#define MODEL_PARAMETERS_H

#define CONV1_IN_CHANNELS 1
#define CONV1_OUT_CHANNELS 16
#define CONV1_KERNEL_SIZE 3
#define CONV1_STRIDE 1
#define CONV1_PADDING 1

static const float conv1_weights[CONV1_OUT_CHANNELS][CONV1_IN_CHANNELS][CONV1_KERNEL_SIZE][CONV1_KERNEL_SIZE] = {
    {
        {
            {0.07145373523235321, -0.2039332091808319, 0.4621957838535309},
            {0.4342139959335327, 0.5186269879341125, -0.027817096561193466},
            {0.6309354305267334, -0.4402337968349457, -0.5457242131233215},
        },
    },
    {
        {
            {0.3699174225330353, -0.761649489402771, -0.5974725484848022},
            {0.7861075401306152, -0.028262488543987274, -0.40865907073020935},
            {0.5645747184753418, 0.26969432830810547, 0.30482858419418335},
        },
    },
    {
        {
            {0.39376142621040344, 0.5095975399017334, 0.06971051543951035},
            {0.14934086799621582, -0.04707534983754158, 0.4071377217769623},
            {-0.2969173491001129, -0.43539637327194214, -0.3856995403766632},
        },
    },
    {
        {
            {0.6177842020988464, 0.3175085186958313, -0.3026692867279053},
            {0.812838077545166, -0.2483893781900406, -0.622173011302948},
            {0.46438834071159363, -0.3751441240310669, -0.6223220825195312},
        },
    },
    {
        {
            {0.2531795799732208, 0.4711950719356537, -0.1185976192355156},
            {-0.16921411454677582, 0.5349072813987732, 0.1714780032634735},
            {-0.878013014793396, -0.36772459745407104, 0.33247318863868713},
        },
    },
    {
        {
            {0.11998860538005829, 0.2126288115978241, 0.3936920166015625},
            {-0.09642017632722855, 0.4213712811470032, 0.668365478515625},
            {-0.8341330289840698, -0.8202608227729797, -0.22269371151924133},
        },
    },
    {
        {
            {0.35665053129196167, 0.5168220400810242, -0.48504531383514404},
            {0.21903376281261444, 0.25622257590293884, 0.10844483226537704},
            {-0.05546552687883377, 0.11418468505144119, 0.3329318165779114},
        },
    },
    {
        {
            {0.3937366306781769, 0.7715230584144592, 0.6730493903160095},
            {-0.010941490530967712, -0.21513433754444122, -0.20485146343708038},
            {-0.6087936758995056, -0.8158365488052368, -0.36755797266960144},
        },
    },
    {
        {
            {-0.0971144437789917, -0.03386751934885979, 0.16420158743858337},
            {-0.3043043613433838, -0.13933810591697693, -0.1700751781463623},
            {-0.22500574588775635, 0.014639060012996197, -0.18903152644634247},
        },
    },
    {
        {
            {-0.5220521688461304, 0.3092341423034668, 0.0929793044924736},
            {0.34771353006362915, 0.38645046949386597, 0.16636691987514496},
            {0.3609173595905304, 0.45705828070640564, -0.02728738822042942},
        },
    },
    {
        {
            {0.1328042447566986, 0.3948730528354645, 0.1882178783416748},
            {0.7934632301330566, -0.10741601884365082, 0.42184382677078247},
            {0.3543580174446106, -0.30421772599220276, -0.5066042542457581},
        },
    },
    {
        {
            {0.4325869083404541, 0.018486754968762398, 0.5149343609809875},
            {-0.3809225857257843, -0.2603655457496643, 0.6097113490104675},
            {-0.3297329545021057, -0.1055273786187172, 0.44521135091781616},
        },
    },
    {
        {
            {0.39208582043647766, -0.0590788908302784, 0.31393662095069885},
            {0.03127526119351387, 0.5319100618362427, 0.3906228542327881},
            {0.32681694626808167, 0.3745141923427582, 0.3140370547771454},
        },
    },
    {
        {
            {-0.182196244597435, 0.18270806968212128, 0.31266775727272034},
            {0.479219913482666, 0.0770614892244339, -0.01119080651551485},
            {0.06744973361492157, 0.21498353779315948, 0.06197018921375275},
        },
    },
    {
        {
            {-0.4803279638290405, -1.2071775197982788, 0.24415311217308044},
            {0.5202388167381287, -1.2678800821304321, -1.167250394821167},
            {0.6229454874992371, 0.14584557712078094, -0.6389511227607727},
        },
    },
    {
        {
            {0.45995134115219116, -0.664870023727417, -0.7611673474311829},
            {0.6812463998794556, 0.760928750038147, 0.02427961304783821},
            {0.27707982063293457, -0.0018163787899538875, 0.3218812644481659},
        },
    },
};

static const float conv1_biases[CONV1_OUT_CHANNELS] = {
0.0034748774487525225, -0.30682820081710815, -0.017383471131324768, -0.04876512661576271, -0.2526009678840637, 0.09074182063341141, -0.3235994279384613, -0.017764201387763023, -0.21756204962730408, -0.08178650587797165, -0.006695925258100033, -0.1389809548854828, -0.1345634013414383, 0.09912813454866409, 0.45936664938926697, -0.36240652203559875
};

#define CONV2_IN_CHANNELS 16
#define CONV2_OUT_CHANNELS 32
#define CONV2_KERNEL_SIZE 3
#define CONV2_STRIDE 1
#define CONV2_PADDING 1

static const float conv2_weights[CONV2_OUT_CHANNELS][CONV2_IN_CHANNELS][CONV2_KERNEL_SIZE][CONV2_KERNEL_SIZE] = {
    {
        {
            {-0.04973248764872551, -0.12033214420080185, 0.12704072892665863},
            {-0.46722841262817383, -0.1272960901260376, 0.18835735321044922},
            {-0.24173298478126526, 0.001983062596991658, 0.03413091599941254},
        },
        {
            {-0.26407572627067566, -0.24298064410686493, 0.14584864675998688},
            {-0.04584825411438942, -0.35415735840797424, 0.30931660532951355},
            {0.1815744936466217, -0.13986001908779144, 0.285768061876297},
        },
        {
            {-0.15827322006225586, -0.14897143840789795, 0.07294771820306778},
            {-0.33546364307403564, -0.12663374841213226, -0.015469455160200596},
            {-0.16829517483711243, -0.11652112007141113, -0.04032013937830925},
        },
        {
            {0.18036621809005737, 0.1058923527598381, 0.5757331252098083},
            {-0.022495830431580544, 0.1388252228498459, 0.5209710001945496},
            {-0.2118275910615921, 0.15708686411380768, 0.3563917279243469},
        },
        {
            {-0.02899002470076084, -0.03709622845053673, -0.1795625239610672},
            {-0.1298326849937439, 0.20746104419231415, -0.1093539446592331},
            {-0.04763778671622276, -0.11282137036323547, -0.3067309856414795},
        },
        {
            {0.12611287832260132, 0.22097134590148926, -0.031191684305667877},
            {-0.05397464334964752, 0.08844001591205597, -0.24074606597423553},
            {-0.015757575631141663, -0.11164721846580505, -0.31962963938713074},
        },
        {
            {-0.2940560281276703, -0.053045254200696945, 0.2338201403617859},
            {-0.24967817962169647, 0.1386290043592453, 0.11290797591209412},
            {-0.07992341369390488, -0.048018667846918106, 0.1506769359111786},
        },
        {
            {-0.26956823468208313, -0.3090539276599884, -0.5597212910652161},
            {-0.27979543805122375, -0.7386680245399475, -0.5003225207328796},
            {-0.40488579869270325, -0.7844507098197937, -0.39524176716804504},
        },
        {
            {-0.04678666591644287, -0.05697065591812134, -0.03156152367591858},
            {0.03204396367073059, 0.06943406909704208, -0.026484917849302292},
            {-0.05418732017278671, -0.04961276054382324, -0.008417993783950806},
        },
        {
            {-0.3300994634628296, 0.03747209161520004, 0.030019480735063553},
            {-0.3277644217014313, 0.173335462808609, 0.16522625088691711},
            {0.002011681441217661, 0.12995056807994843, 0.06121785566210747},
        },
        {
            {-0.2514842450618744, -0.03664883226156235, 0.20727606117725372},
            {-0.5067382454872131, 0.01295141875743866, 0.17461508512496948},
            {-0.11862196773290634, -0.061905134469270706, 0.0451073944568634},
        },
        {
            {-0.015950120985507965, 0.2659926116466522, -0.013962705619633198},
            {-0.038744039833545685, 0.29007676243782043, -0.024352973327040672},
            {0.032164979726076126, 0.04971526935696602, -0.05376001074910164},
        },
        {
            {-0.1572009176015854, 0.1958848088979721, 0.09749934822320938},
            {-0.2001786082983017, 0.1570161134004593, 0.09894927591085434},
            {-0.08030203729867935, 0.00038072242750786245, 0.04318621754646301},
        },
        {
            {-0.12913762032985687, 0.011531689204275608, 0.08833326399326324},
            {-0.2180713266134262, 0.04374879226088524, 0.12434467673301697},
            {0.019842954352498055, 0.12043394148349762, 0.06177353486418724},
        },
        {
            {0.04266534745693207, -0.17934811115264893, -0.15803398191928864},
            {0.22231128811836243, -0.13441288471221924, -0.04789099469780922},
            {0.13260740041732788, -0.1767638474702835, 0.23235414922237396},
        },
        {
            {-0.40481725335121155, -0.1328570395708084, 0.24079562723636627},
            {-0.3686501085758209, -0.23508645594120026, 0.30565956234931946},
            {-0.0771598368883133, -0.02786734327673912, 0.10282275080680847},
        },
    },
    {
        {
            {-0.13322460651397705, 0.17816652357578278, -0.057269275188446045},
            {-0.03017239272594452, 0.22269202768802643, -0.025846410542726517},
            {-0.2479037046432495, 0.05103524774312973, -0.0209273099899292},
        },
        {
            {-0.39835867285728455, 0.06772308796644211, 0.19194595515727997},
            {-0.24601024389266968, 0.3073011040687561, 0.13380926847457886},
            {-0.1325395107269287, 0.23785632848739624, 0.006356339436024427},
        },
        {
            {-0.21847178041934967, 0.11618993431329727, 0.09887438267469406},
            {-0.0465032123029232, 0.04074351117014885, -0.20289182662963867},
            {0.05465405434370041, 0.018506556749343872, -0.06382846087217331},
        },
        {
            {0.14659546315670013, 0.18550360202789307, 0.21010822057724},
            {0.17834199965000153, 0.15477599203586578, 0.22047212719917297},
            {-0.3536238372325897, 0.04550016298890114, 0.02238396555185318},
        },
        {
            {0.148891419172287, -0.26735618710517883, -0.09905491769313812},
            {0.33020374178886414, -0.337648868560791, -0.3116929233074188},
            {0.12846344709396362, 0.17094846069812775, -0.14538370072841644},
        },
        {
            {-0.0726558268070221, -0.2551038861274719, -0.2022933065891266},
            {0.07328298687934875, -0.5024992823600769, -0.3203255832195282},
            {0.06596776843070984, 0.076812244951725, -0.046938180923461914},
        },
        {
            {-0.03116772696375847, 0.14502213895320892, 0.060607101768255234},
            {0.17343848943710327, 0.22325900197029114, -0.02429940178990364},
            {0.005116845015436411, 0.08156151324510574, -0.04653172194957733},
        },
        {
            {-0.7841554284095764, -0.20684224367141724, -0.21364744007587433},
            {-0.5680667161941528, -0.6093843579292297, -0.4524182081222534},
            {-0.47912347316741943, -0.014652018435299397, 0.1965508908033371},
        },
        {
            {-0.0268963985145092, -0.046646200120449066, 0.03469309210777283},
            {0.08268573880195618, -0.030241262167692184, -0.05101589486002922},
            {0.06980222463607788, 0.017221391201019287, -0.06212407350540161},
        },
        {
            {0.010373630560934544, 0.1426970511674881, -0.13096022605895996},
            {0.024447668343782425, 0.056540440768003464, -0.2209654599428177},
            {0.09744904935359955, 0.12423378974199295, -0.06284668296575546},
        },
        {
            {-0.09562563896179199, 0.17304395139217377, -0.08701824396848679},
            {-0.0708606019616127, 0.0710345134139061, -0.03367053344845772},
            {-0.026366962119936943, -0.004266229458153248, -0.1006518304347992},
        },
        {
            {0.11832194030284882, 0.00235622376203537, -0.10301493108272552},
            {0.2860957682132721, -0.0908885970711708, -0.10997822880744934},
            {0.18641918897628784, 0.004427727311849594, -0.2823088765144348},
        },
        {
            {0.10261368006467819, 0.10963546484708786, -0.194776713848114},
            {0.060682766139507294, 0.13444092869758606, -0.2938937544822693},
            {0.024807516485452652, 0.09400695562362671, -0.02925228327512741},
        },
        {
            {0.051424168050289154, 0.11708612740039825, -0.13541805744171143},
            {-0.0004668290202971548, 0.026324214413762093, -0.20757462084293365},
            {0.04202402010560036, -0.07209943234920502, -0.10424261540174484},
        },
        {
            {-0.1770806908607483, -0.023069819435477257, 0.06173839420080185},
            {0.018251577392220497, 0.16865456104278564, 0.07972554117441177},
            {0.13422730565071106, -0.20978040993213654, -0.2356325089931488},
        },
        {
            {-0.21418964862823486, -0.07552248239517212, 0.01284730900079012},
            {-0.001973972423002124, 0.22124572098255157, -0.09054643660783768},
            {-0.19355298578739166, 0.13716788589954376, 0.0019853494595736265},
        },
    },
    {
        {
            {0.06055636331439018, 0.21658466756343842, -0.08959285169839859},
            {-0.36656731367111206, -0.04557502642273903, -0.035604313015937805},
            {-0.0685553178191185, 0.012884194031357765, 0.09607332944869995},
        },
        {
            {0.22762496769428253, 0.3543182611465454, -0.13950365781784058},
            {0.05190196633338928, 0.4508919417858124, 0.2309073507785797},
            {-0.4346608519554138, 0.1810375303030014, -0.007324236910790205},
        },
        {
            {-0.1546444296836853, -0.02491532638669014, -0.1451924741268158},
            {0.06297336518764496, -0.1187366247177124, -0.09285574406385422},
            {-0.1841813176870346, 0.08523441851139069, 0.2120521068572998},
        },
        {
            {0.32535263895988464, 0.2676302492618561, -0.015664713457226753},
            {-0.48408904671669006, -0.019649138674139977, -0.0006550648831762373},
            {-0.4416867196559906, -0.2763410806655884, -0.03487417474389076},
        },
        {
            {0.28827762603759766, -0.09419815987348557, 0.39747992157936096},
            {0.6106890439987183, 0.17073890566825867, 0.05264848843216896},
            {-0.11621631681919098, 0.25183942914009094, 0.18606318533420563},
        },
        {
            {0.05980947986245155, -0.07725927978754044, 0.03653838858008385},
            {0.15640251338481903, -0.06853078305721283, -0.2982979416847229},
            {-0.24774742126464844, 0.08112088590860367, 0.09931359440088272},
        },
        {
            {0.1887931376695633, -0.0574069507420063, -0.18556420505046844},
            {0.1472548097372055, 0.17006681859493256, -0.0662047266960144},
            {-0.18687747418880463, 0.08768722414970398, 0.0194039698690176},
        },
        {
            {-0.5908123850822449, -0.3804938793182373, 0.04388558492064476},
            {0.07059142738580704, 0.102664515376091, 0.1163863092660904},
            {0.014583652839064598, 0.26590830087661743, 0.4699915051460266},
        },
        {
            {-0.07419957965612411, -0.004583369009196758, 0.03539922088384628},
            {-0.07460951805114746, -0.04654386639595032, -0.04429249092936516},
            {0.05815940350294113, -0.042023949325084686, 0.0733354315161705},
        },
        {
            {0.09386108815670013, -0.14036297798156738, -0.07647984474897385},
            {-0.1539195477962494, 0.11458925902843475, 0.1404937505722046},
            {0.007689217571169138, 0.04911324009299278, 0.024010011926293373},
        },
        {
            {0.0018131827237084508, 0.018750682473182678, -0.14020414650440216},
            {-0.11747784912586212, -0.08859729021787643, -0.08770959824323654},
            {-0.07756738364696503, 0.16518056392669678, 0.12338235974311829},
        },
        {
            {-0.04350368306040764, -0.07216215878725052, -0.09308193624019623},
            {0.173097163438797, 0.05702729895710945, 0.09361135214567184},
            {-0.12197723239660263, -0.05814636871218681, -0.04134664312005043},
        },
        {
            {0.06053512915968895, -0.21525342762470245, -0.2921349108219147},
            {0.005176841281354427, 0.0661030262708664, -0.048867322504520416},
            {0.018357835710048676, -0.021205008029937744, -0.05313602834939957},
        },
        {
            {-0.042049799114465714, -0.02439005672931671, -0.30057868361473083},
            {-0.08060425519943237, -0.06581941246986389, 0.02466195821762085},
            {0.05283764749765396, -0.12126440554857254, 0.03280548378825188},
        },
        {
            {-0.01644936576485634, 0.010521129705011845, 0.05811452120542526},
            {0.08188574016094208, 0.3409213423728943, -0.6035051941871643},
            {-0.026561232283711433, -0.18094445765018463, -0.17174209654331207},
        },
        {
            {0.11320456862449646, 0.19961678981781006, -0.11555446684360504},
            {0.0687011331319809, 0.2929196059703827, 0.24807889759540558},
            {-0.2631412148475647, 0.23273606598377228, 0.05172275751829147},
        },
    },
    {
        {
            {-0.02915089763700962, 0.19738051295280457, 0.10402847081422806},
            {0.2253306806087494, 0.16215863823890686, -0.3726811408996582},
            {-0.03681527078151703, 0.03468100354075432, -0.20446082949638367},
        },
        {
            {-0.4442884624004364, 0.17128030955791473, 0.16707439720630646},
            {-0.3041549324989319, 0.15807278454303741, -0.19446732103824615},
            {0.11729086190462112, 0.09440695494413376, 0.04287183657288551},
        },
        {
            {-0.06831856817007065, 0.09652592986822128, 0.02590085379779339},
            {-0.035757750272750854, 0.12292403727769852, -0.3024298846721649},
            {0.0432613343000412, -0.09362947940826416, -0.13600100576877594},
        },
        {
            {0.1271751970052719, 0.4112161099910736, 0.25446873903274536},
            {0.31825125217437744, 0.4992338716983795, -0.04880988225340843},
            {0.33077362179756165, 0.29032373428344727, -0.362486332654953},
        },
        {
            {-0.09532909840345383, -0.45566853880882263, -0.2631903886795044},
            {-0.37378546595573425, -0.6503772735595703, -0.573975145816803},
            {-0.35512667894363403, -0.5077048540115356, 0.07040781527757645},
        },
        {
            {-0.1544521301984787, -0.17012621462345123, -0.23950274288654327},
            {-0.3251567482948303, -0.462256520986557, -0.10580423474311829},
            {-0.3883178234100342, -0.20054996013641357, 0.25413379073143005},
        },
        {
            {0.09894003719091415, 0.18355000019073486, -0.022705212235450745},
            {0.11720121651887894, 0.12884677946567535, -0.28816816210746765},
            {0.08675149828195572, 0.08278229832649231, -0.09618162363767624},
        },
        {
            {-0.552915632724762, -0.05962022766470909, -0.281571626663208},
            {-0.5176796913146973, -0.3938830494880676, -0.37269845604896545},
            {-0.28466159105300903, 0.06107976287603378, 0.23021149635314941},
        },
        {
            {0.020245622843503952, 0.05095233768224716, -0.015486876480281353},
            {-0.0014593999367207289, 0.03226397559046745, -0.03207157179713249},
            {-0.007667750120162964, -0.06170573830604553, 0.010311136953532696},
        },
        {
            {0.25894254446029663, 0.11675286293029785, -0.3822421133518219},
            {0.25291645526885986, 0.12988419830799103, -0.23274198174476624},
            {0.16340938210487366, -0.02833249792456627, 0.1435246467590332},
        },
        {
            {0.15044572949409485, 0.27814480662345886, -0.06852059811353683},
            {0.10582026094198227, 0.1465737223625183, -0.2947283685207367},
            {0.10499219596385956, 0.03435385972261429, -0.12120344489812851},
        },
        {
            {0.16654981672763824, -0.01248282752931118, -0.44631507992744446},
            {0.10002785176038742, -0.17612463235855103, -0.30778050422668457},
            {-0.07291726768016815, -0.1929975301027298, -0.1824827343225479},
        },
        {
            {0.19745561480522156, 0.1545676440000534, -0.438604474067688},
            {0.10824839770793915, 0.03931860998272896, -0.41734570264816284},
            {0.1559429168701172, 0.07610916346311569, 0.027093935757875443},
        },
        {
            {0.17284947633743286, 0.15657036006450653, -0.18422096967697144},
            {0.20016832649707794, 0.0139511963352561, -0.20795060694217682},
            {0.07873864471912384, -0.08111974596977234, -0.07856828719377518},
        },
        {
            {-0.26281240582466125, -0.009315681643784046, 0.11225948482751846},
            {-0.34942206740379333, -0.10013261437416077, 0.0020695189014077187},
            {-0.06452001631259918, -0.34807196259498596, -0.22636014223098755},
        },
        {
            {-0.17189036309719086, 0.1043790951371193, -0.019357258453965187},
            {-0.1496899127960205, 0.10204102098941803, -0.2924528419971466},
            {0.030112069100141525, 0.06758874654769897, 0.1276046335697174},
        },
    },
    {
        {
            {-0.35665711760520935, -0.4155805706977844, -0.2217751145362854},
            {-0.3175560534000397, 0.33169126510620117, 0.35530591011047363},
            {0.47337231040000916, 0.08218581229448318, 0.08251762390136719},
        },
        {
            {-0.27813392877578735, -0.03590256720781326, -0.30772894620895386},
            {-0.26648417115211487, -0.18287953734397888, -0.39996397495269775},
            {-0.09135627001523972, -0.2079923003911972, -0.312829852104187},
        },
        {
            {-0.18836376070976257, -0.16493242979049683, -0.09513694792985916},
            {-0.07268279790878296, -0.10415349900722504, 0.26927900314331055},
            {0.1365336775779724, 0.1718674749135971, 0.02018386498093605},
        },
        {
            {-0.6551800966262817, -0.39123523235321045, -0.5707175135612488},
            {-0.802427351474762, -0.4148351848125458, -0.1098729819059372},
            {0.07818407565355301, 0.09833015501499176, 0.194471538066864},
        },
        {
            {-0.2253924310207367, -0.03802082687616348, -0.5960782170295715},
            {-0.2008100301027298, -0.21782231330871582, -0.2180057168006897},
            {-0.742289662361145, -0.19207550585269928, -0.6246635317802429},
        },
        {
            {-0.13194598257541656, -0.330712229013443, -0.11053436249494553},
            {0.06761224567890167, 0.0500057078897953, 0.25536924600601196},
            {-0.1697993129491806, -0.15379340946674347, -0.33697572350502014},
        },
        {
            {-0.36543262004852295, -0.059859804809093475, -0.099920853972435},
            {-0.08177933096885681, 0.153845876455307, -0.07982072234153748},
            {0.08237029612064362, 0.076453797519207, 0.015330714173614979},
        },
        {
            {0.20931284129619598, 0.37284591794013977, -0.12245649844408035},
            {-0.1314121037721634, -0.24337424337863922, 0.5933289527893066},
            {0.11135018616914749, 0.1300804167985916, 0.10249271243810654},
        },
        {
            {0.003269294975325465, -0.04243002459406853, 0.05285888910293579},
            {0.03837406635284424, -0.010615229606628418, 0.0460762083530426},
            {-0.0791187733411789, -0.03429722785949707, 0.06601416319608688},
        },
        {
            {-0.20333968102931976, -0.16144730150699615, 0.0573163740336895},
            {-0.16515807807445526, 0.2749198377132416, 0.3028600811958313},
            {0.3285166621208191, 0.11008857935667038, -0.111542709171772},
        },
        {
            {-0.2583942115306854, -0.49464988708496094, -0.2580081522464752},
            {-0.3326243460178375, 0.22839407622814178, 0.3668064773082733},
            {0.2968243956565857, 0.22541379928588867, 0.1476902961730957},
        },
        {
            {-0.47890031337738037, -0.3660743236541748, 0.23252849280834198},
            {0.16723105311393738, -0.09872837364673615, 0.198725163936615},
            {-0.006613647565245628, 0.15488740801811218, -0.2235276997089386},
        },
        {
            {-0.4226289689540863, -0.1953640580177307, 0.09046854823827744},
            {0.013272291980683804, 0.1467984914779663, 0.13528385758399963},
            {0.13155682384967804, 0.06699288636445999, -0.2556808888912201},
        },
        {
            {-0.19700226187705994, -0.07075629383325577, 0.02102440781891346},
            {-0.12296831607818604, 0.26179996132850647, 0.27525556087493896},
            {0.26284128427505493, 0.11505338549613953, 0.02918410487473011},
        },
        {
            {0.03997272253036499, 0.05209578201174736, -0.3543817698955536},
            {0.015012708492577076, -0.1224045529961586, -0.3781995475292206},
            {-0.28665319085121155, -0.015827523544430733, -0.006998944561928511},
        },
        {
            {-0.19610385596752167, 0.015838176012039185, -0.0554586760699749},
            {-0.13070973753929138, 0.16870810091495514, -0.2605609595775604},
            {0.1766328513622284, -0.05667489022016525, -0.16979433596134186},
        },
    },
    {
        {
            {-0.3576202392578125, -0.25270959734916687, -0.17020130157470703},
            {0.1370568573474884, -0.072722427546978, -0.38181403279304504},
            {0.26592394709587097, 0.10383407026529312, -0.05162525177001953},
        },
        {
            {-0.4803624153137207, -0.1005227342247963, -0.44184261560440063},
            {0.22439345717430115, 0.10445006936788559, 0.43785640597343445},
            {0.253409743309021, 0.39878609776496887, 0.6466671228408813},
        },
        {
            {-0.017984073609113693, -0.011185390874743462, 0.2782551944255829},
            {-0.07332909107208252, -0.20232486724853516, -0.5638598799705505},
            {0.0716865137219429, 0.10822410881519318, 0.14938414096832275},
        },
        {
            {-0.6926150321960449, -0.514059841632843, -0.5431976318359375},
            {-0.1941029131412506, -0.22932910919189453, -0.714040219783783},
            {0.17334167659282684, -0.21669061481952667, -0.5142253637313843},
        },
        {
            {-0.10993776470422745, 0.16374394297599792, 0.16599373519420624},
            {-0.26864466071128845, 0.2615320384502411, -0.21311406791210175},
            {0.12612119317054749, 0.3475927710533142, 0.3703102469444275},
        },
        {
            {0.12876206636428833, 0.1614345759153366, 0.44260120391845703},
            {-0.274321585893631, 0.1328372210264206, -0.07426976412534714},
            {-0.053480204194784164, 0.08322165161371231, 0.03089194744825363},
        },
        {
            {-0.40437841415405273, -0.21057701110839844, -0.3439677059650421},
            {0.1434793621301651, -0.007854457013309002, -0.24813756346702576},
            {0.08305351436138153, 0.09703943133354187, 0.19712094962596893},
        },
        {
            {0.344088077545166, 0.15733249485492706, 0.4542747735977173},
            {-0.22392010688781738, -0.15291419625282288, -0.09246131032705307},
            {0.024007489904761314, 0.031843237578868866, 0.04570856690406799},
        },
        {
            {-0.07182528078556061, -0.003571500536054373, -0.057638585567474365},
            {0.014679750427603722, -0.06851039826869965, 0.069989413022995},
            {0.07175128906965256, -0.010674874298274517, 0.018343448638916016},
        },
        {
            {-0.1776600480079651, -0.31545397639274597, -0.28963926434516907},
            {0.1915409415960312, -0.05423080176115036, -0.11146385222673416},
            {0.15161658823490143, 0.076090507209301, -0.05908455699682236},
        },
        {
            {-0.3747553527355194, -0.16755636036396027, 0.03864511474967003},
            {0.12821021676063538, -0.029818888753652573, -0.4049224853515625},
            {0.24380524456501007, 0.029982976615428925, 0.08232425153255463},
        },
        {
            {-0.1227082684636116, -0.25914835929870605, 0.09292639791965485},
            {-0.07977168262004852, -0.16663758456707, -0.1760706603527069},
            {0.20178334414958954, 0.003720179433003068, -0.04477604106068611},
        },
        {
            {-0.36136630177497864, -0.33015361428260803, -0.1954406350851059},
            {0.07108935713768005, 0.02877558395266533, -0.24818001687526703},
            {0.08659490197896957, 0.052350644022226334, 0.16198503971099854},
        },
        {
            {-0.31247612833976746, -0.2114107608795166, -0.1296110451221466},
            {0.1170487105846405, -0.08896784484386444, -0.24301110208034515},
            {0.05777588486671448, -0.039959073066711426, -0.0668938010931015},
        },
        {
            {-0.09283097833395004, -0.06885505467653275, 0.05090711638331413},
            {-0.08149939030408859, -0.06009284406900406, 0.1608167290687561},
            {-0.11653747409582138, -0.005075532011687756, 0.13111500442028046},
        },
        {
            {-0.355134516954422, -0.20583385229110718, -0.5531633496284485},
            {0.2091684490442276, 0.17375603318214417, 0.15521162748336792},
            {0.14077958464622498, 0.3091798722743988, 0.4464007616043091},
        },
    },
    {
        {
            {0.20177273452281952, 0.03192983567714691, 0.13778701424598694},
            {-0.011679152026772499, 0.09866882860660553, -0.03206289932131767},
            {-0.033004868775606155, -0.1834828108549118, 0.0008710998808965087},
        },
        {
            {0.1827855110168457, 0.08708851039409637, 0.04974253475666046},
            {-0.19342158734798431, -0.07298054546117783, 0.11061438173055649},
            {0.19942016899585724, -0.008487526327371597, 0.02755730040371418},
        },
        {
            {0.13737133145332336, -0.03593921661376953, 0.010425211861729622},
            {0.29628512263298035, 0.25498804450035095, -0.006382393650710583},
            {-0.08016740530729294, -0.16571636497974396, -0.05785568431019783},
        },
        {
            {-0.23029911518096924, -0.3965890407562256, -0.15074314177036285},
            {-0.15886609256267548, -0.29793375730514526, -0.18374568223953247},
            {-0.13911469280719757, -0.16241663694381714, 0.18413595855236053},
        },
        {
            {-0.0770459845662117, -0.25539520382881165, -0.02140696719288826},
            {0.27744612097740173, 0.360017329454422, 0.29283738136291504},
            {-0.033942319452762604, 0.22042912244796753, 0.035118721425533295},
        },
        {
            {-0.16662275791168213, -0.09303278475999832, -0.0025650705210864544},
            {0.16379882395267487, 0.19772611558437347, 0.10049419105052948},
            {-0.006022965535521507, -0.06886789947748184, 0.14467771351337433},
        },
        {
            {0.1872461885213852, -0.008211195468902588, 0.039684779942035675},
            {0.06090832129120827, -0.07286205142736435, -0.04610327631235123},
            {0.03159724920988083, -0.05057508125901222, -0.0670439749956131},
        },
        {
            {0.06153019145131111, -0.04943004995584488, 0.10967184603214264},
            {0.41954299807548523, 0.34858056902885437, 0.15174119174480438},
            {0.09444261342287064, 0.15483170747756958, 0.3616970181465149},
        },
        {
            {-0.07222826778888702, -0.07135926187038422, 0.03987526893615723},
            {0.03541196510195732, 0.038441143929958344, -0.08060924708843231},
            {-0.024283191189169884, -0.018407534807920456, 0.06406363099813461},
        },
        {
            {0.13583849370479584, -0.029035907238721848, -0.007674181833863258},
            {-0.12368286401033401, -0.1483563780784607, -0.14537863433361053},
            {-0.06232417747378349, 0.03812151029706001, -0.06415347009897232},
        },
        {
            {0.08705852180719376, -0.045094083994627, -0.05900357663631439},
            {0.13725139200687408, 0.10479680448770523, -0.07985032349824905},
            {-0.060226548463106155, -0.047343723475933075, 0.09103716909885406},
        },
        {
            {-0.12836197018623352, 0.12627257406711578, 0.09737476706504822},
            {0.04548418149352074, 0.13715583086013794, 0.08404640853404999},
            {-0.150983527302742, -0.120874784886837, 0.07340327650308609},
        },
        {
            {0.010513152927160263, 0.03909563645720482, -0.004455223213881254},
            {-0.0032425622921437025, -0.1477520912885666, 0.051139604300260544},
            {-0.07514888048171997, -0.14611482620239258, 0.0321536622941494},
        },
        {
            {0.13938838243484497, 0.04007326439023018, 0.006820186972618103},
            {-0.10620994120836258, -0.1296452283859253, -0.018561773002147675},
            {-0.01866338960826397, 0.019021740183234215, 0.03414732217788696},
        },
        {
            {-0.3686859905719757, 0.12674975395202637, -0.2061777561903},
            {-0.28647008538246155, 0.09011761099100113, -0.14144891500473022},
            {-0.16263030469417572, -0.18048079311847687, -0.1731923371553421},
        },
        {
            {0.23276376724243164, 0.16946524381637573, 0.040843285620212555},
            {0.013716567307710648, 0.09711088240146637, 0.1646670252084732},
            {0.11271234601736069, 0.08228107541799545, -0.08429136872291565},
        },
    },
    {
        {
            {0.12596413493156433, -0.25988078117370605, 0.01133651752024889},
            {0.24953794479370117, 0.0800173431634903, -0.08176710456609726},
            {-0.0028323058504611254, 0.15787899494171143, -0.05324805900454521},
        },
        {
            {0.5492540001869202, 0.06107017397880554, -0.4031248092651367},
            {0.3001736104488373, 0.3464599549770355, -0.012915339320898056},
            {-0.01228310540318489, 0.3614310622215271, 0.33470413088798523},
        },
        {
            {-0.20598956942558289, -0.32768312096595764, -0.06636247783899307},
            {0.15369199216365814, -0.3270038664340973, -0.44042083621025085},
            {-0.06592913717031479, -0.18901894986629486, -0.1387910693883896},
        },
        {
            {0.16650941967964172, -0.2865055799484253, -0.37878310680389404},
            {0.08992667496204376, -0.07792611420154572, 0.12096686661243439},
            {-0.026861052960157394, 0.18470484018325806, 0.07860367000102997},
        },
        {
            {-0.28926345705986023, 0.24585506319999695, 0.04584622010588646},
            {0.04973652586340904, -0.10595952719449997, -0.032175563275814056},
            {0.09707584977149963, 0.33878785371780396, -0.39972689747810364},
        },
        {
            {-0.3029254376888275, 0.07637844979763031, 0.2561877369880676},
            {-0.24377994239330292, -0.0063367062248289585, -0.03142959624528885},
            {-0.2535978853702545, -0.11844902485609055, -0.2989245355129242},
        },
        {
            {0.08288566023111343, -0.17648456990718842, -0.16797250509262085},
            {0.2997753322124481, -0.09994442760944366, -0.031834326684474945},
            {0.22212043404579163, 0.007947898469865322, 0.055528268218040466},
        },
        {
            {-0.09858044236898422, -0.13252535462379456, 0.0717473030090332},
            {-0.506662905216217, -0.4295601546764374, -0.7320206165313721},
            {-0.3542509078979492, -0.6349019408226013, -0.8560827970504761},
        },
        {
            {0.061946362257003784, -0.006358355283737183, -0.0003281831741333008},
            {-0.06827154755592346, -0.07025149464607239, -0.04315128177404404},
            {0.07594820111989975, -0.003136118408292532, -0.01906929537653923},
        },
        {
            {0.14375923573970795, -0.259003609418869, 0.029771385714411736},
            {0.14437882602214813, -0.10779306292533875, -0.11790428310632706},
            {-0.01757495477795601, 0.026320019736886024, 0.08130540698766708},
        },
        {
            {0.020254265516996384, -0.20250456035137177, 0.017927277833223343},
            {0.12360042333602905, 0.060269035398960114, -0.09212794154882431},
            {7.839217141736299e-05, -0.07586192339658737, -0.06867574900388718},
        },
        {
            {-0.45015114545822144, -0.2460366189479828, 0.2353469729423523},
            {0.10294026881456375, 0.13422158360481262, -0.004184972960501909},
            {0.1508868932723999, 0.04847114905714989, -0.14722946286201477},
        },
        {
            {-0.03268807381391525, -0.35758551955223083, -0.05067850276827812},
            {0.18107616901397705, -0.05008959770202637, -0.11087656766176224},
            {0.05185618996620178, 0.16566705703735352, -0.021952813491225243},
        },
        {
            {0.004044605419039726, -0.19729764759540558, -0.04599399492144585},
            {0.058376800268888474, -0.15326541662216187, -0.06972621381282806},
            {-0.05353432893753052, 0.010491300374269485, -0.07448093593120575},
        },
        {
            {0.1539713740348816, 0.15211962163448334, 0.04378306865692139},
            {0.12684054672718048, 0.02850150316953659, -0.08832088112831116},
            {-0.18131592869758606, 0.2068355530500412, 0.1784171462059021},
        },
        {
            {0.359334796667099, -0.0424446165561676, -0.40578675270080566},
            {0.41744694113731384, 0.11917835474014282, -0.09738344699144363},
            {0.08060357719659805, 0.27303099632263184, 0.177986741065979},
        },
    },
    {
        {
            {-0.2594965994358063, -0.21850146353244781, -0.32414305210113525},
            {0.32534167170524597, 0.01808963157236576, 0.08985639363527298},
            {-0.050159696489572525, -0.08052865415811539, 0.0030254374723881483},
        },
        {
            {-0.2826603651046753, -0.08063048124313354, 0.14659354090690613},
            {0.12711285054683685, 0.02356867678463459, 0.08836232125759125},
            {-0.26431509852409363, -0.5028210878372192, -0.06667685508728027},
        },
        {
            {-0.04473777115345001, -0.49723687767982483, -0.34205693006515503},
            {0.19638821482658386, 0.11855840682983398, -0.06952928006649017},
            {0.28973662853240967, 0.25296348333358765, 0.25778618454933167},
        },
        {
            {-0.5533098578453064, -1.0189687013626099, -0.5857027173042297},
            {-0.24543669819831848, -0.2062356173992157, -0.33764567971229553},
            {0.04285502806305885, -0.5466707348823547, -0.07784399390220642},
        },
        {
            {-0.3553926944732666, -0.9213953018188477, -0.7761473655700684},
            {-0.21151593327522278, -0.1372949630022049, -0.1483590304851532},
            {0.15197621285915375, -0.04527692869305611, 0.321953684091568},
        },
        {
            {-0.10380798578262329, -0.50169837474823, -0.42484256625175476},
            {0.06659089773893356, 0.028579214587807655, -0.13078024983406067},
            {0.22943425178527832, 0.17206020653247833, 0.22701872885227203},
        },
        {
            {-0.1819983720779419, -0.16076162457466125, -0.1834954023361206},
            {0.07024688273668289, 0.10800881683826447, 0.03521968051791191},
            {0.024165984243154526, -0.086527019739151, 0.09698119759559631},
        },
        {
            {0.4221186637878418, -0.4462345838546753, -0.362644225358963},
            {-0.14555341005325317, 0.036545708775520325, -0.03135254979133606},
            {0.6474099159240723, 0.36775994300842285, 0.361570805311203},
        },
        {
            {0.08044379204511642, -0.03863684460520744, 0.0235628392547369},
            {-0.08267617225646973, -0.008426140062510967, -0.007987896911799908},
            {0.07052764296531677, -0.07381092756986618, -0.051939159631729126},
        },
        {
            {-0.09708822518587112, -0.04475893825292587, -0.0038267376367002726},
            {0.23344819247722626, 0.14566874504089355, 0.06377585977315903},
            {-0.23728708922863007, -0.17308460175991058, -0.09519167989492416},
        },
        {
            {-0.36216193437576294, -0.38804036378860474, -0.3874061107635498},
            {0.3647235035896301, 0.2237081676721573, 0.046647991985082626},
            {0.04822223260998726, 0.061210520565509796, 0.1396733522415161},
        },
        {
            {-0.028572451323270798, -0.3112819194793701, -0.07197409123182297},
            {0.03748233616352081, 0.04884389415383339, -0.015463517047464848},
            {0.15063416957855225, 0.1447415053844452, 0.062350258231163025},
        },
        {
            {-0.13554246723651886, -0.09564767777919769, -0.009687264449894428},
            {0.147858127951622, 0.1655808687210083, 0.052557237446308136},
            {-0.06135182827711105, -0.024175195023417473, 0.01215363945811987},
        },
        {
            {-0.18759171664714813, -0.08790621906518936, -0.05329987034201622},
            {0.16499409079551697, 0.13100160658359528, -0.008459550328552723},
            {0.07057428359985352, -0.15033748745918274, 0.001396580832079053},
        },
        {
            {-0.06826917082071304, 0.0027730411384254694, 0.27864086627960205},
            {-0.18420252203941345, -0.02565966732800007, 0.015488705597817898},
            {0.021370423957705498, 0.032520513981580734, 0.03282869607210159},
        },
        {
            {-0.24782626330852509, -0.09613809734582901, -0.00788095686584711},
            {0.12822136282920837, 0.2047262340784073, 0.2013961523771286},
            {-0.11508996039628983, -0.22918683290481567, -0.08798250555992126},
        },
    },
    {
        {
            {0.008655210956931114, 0.022948523983359337, 0.05576619878411293},
            {0.020782627165317535, 0.00932362861931324, -0.07680778950452805},
            {0.013307426124811172, -0.04687381163239479, 0.004499656148254871},
        },
        {
            {-0.033845338970422745, 0.04071982204914093, 0.017173435539007187},
            {0.06903021037578583, -0.025353437289595604, -0.07757263630628586},
            {0.0985044315457344, -0.04611074924468994, 0.012952259741723537},
        },
        {
            {-0.04635945335030556, 0.007453120779246092, -0.006325914524495602},
            {0.06254483014345169, -0.02968873269855976, -0.064974345266819},
            {-0.059119097888469696, -0.017902987077832222, -0.1064024493098259},
        },
        {
            {-0.0010885694064199924, 0.0036278164479881525, -0.07375046610832214},
            {-0.00786118395626545, -0.0864555761218071, -0.022116582840681076},
            {0.02669883891940117, -0.037900518625974655, -0.07554814219474792},
        },
        {
            {-0.03947078064084053, -0.003508765483275056, 0.016041116788983345},
            {0.0061971875838935375, -0.04175528883934021, 0.03983097895979881},
            {-0.012469323351979256, -0.03887754678726196, -0.03057233616709709},
        },
        {
            {-0.04806864261627197, -0.10659341514110565, -0.006437786854803562},
            {-0.008563113398849964, 0.005660739727318287, -0.0026931471657007933},
            {-0.0585893876850605, 0.0258028581738472, -0.06853072345256805},
        },
        {
            {0.040657076984643936, -0.0018996017752215266, -0.040167782455682755},
            {-0.07072970271110535, -0.017581652849912643, -0.08227250725030899},
            {-0.008219879120588303, -0.03588488698005676, -0.04794802889227867},
        },
        {
            {0.053659357130527496, -0.052246592938899994, -0.006377943325787783},
            {0.0548214465379715, -0.0670718178153038, 0.06434936076402664},
            {-0.05006154999136925, 0.06671678274869919, 0.015607500448822975},
        },
        {
            {0.005035032983869314, -0.04330223798751831, 0.08301206678152084},
            {-0.0676741823554039, 0.0308868195861578, -0.0014756720047444105},
            {0.06399478763341904, -0.054628849029541016, 0.009902894496917725},
        },
        {
            {-0.04746013507246971, -0.040348589420318604, -0.05415390804409981},
            {-0.05256485566496849, 0.02195793017745018, 0.02100764773786068},
            {0.035217441618442535, 0.03264019638299942, 0.030752617865800858},
        },
        {
            {-0.03443887457251549, -0.07371306419372559, 0.03444743528962135},
            {-0.012429486960172653, -0.0827711969614029, 0.026853758841753006},
            {0.07023079693317413, -0.10040052980184555, 0.04896295815706253},
        },
        {
            {-0.08448657393455505, -0.0941573902964592, -0.008831018581986427},
            {-0.09105831384658813, -0.012712758034467697, 0.019267955794930458},
            {-0.01826154813170433, -0.060208287090063095, 0.03652025759220123},
        },
        {
            {-0.041608259081840515, -0.04635220393538475, -0.022958705201745033},
            {-0.012617785483598709, -0.060852132737636566, 0.05237831175327301},
            {-0.022755803540349007, 0.051180001348257065, -0.03138730302453041},
        },
        {
            {-0.09167463332414627, -0.05546165257692337, -0.004480742383748293},
            {0.027934933081269264, -0.0428975373506546, 0.013346608728170395},
            {-0.028697364032268524, -0.08319774270057678, -0.086114302277565},
        },
        {
            {0.023485494777560234, -0.07954307645559311, -0.10735157132148743},
            {-0.059797871857881546, -0.11843662708997726, -0.10664938390254974},
            {-0.05380524694919586, -0.07504516839981079, -0.06038779392838478},
        },
        {
            {0.00524613494053483, -0.047384731471538544, 0.07219208776950836},
            {0.03648802638053894, -0.05695493519306183, 0.024919262155890465},
            {-0.05318117141723633, -0.06490808725357056, -0.005629423074424267},
        },
    },
    {
        {
            {-0.07358728349208832, -0.08074488490819931, -0.03681553900241852},
            {0.02699933759868145, 0.15650077164173126, 0.07040586322546005},
            {-0.0357905775308609, -0.12308323383331299, 0.08287987112998962},
        },
        {
            {0.1667143553495407, 0.22372476756572723, -0.10780998319387436},
            {0.1563510298728943, -0.029551325365900993, -0.22216302156448364},
            {-0.12131163477897644, -0.22556021809577942, -0.2738089859485626},
        },
        {
            {-0.07571356743574142, -0.2175142914056778, -0.1579301804304123},
            {0.15049110352993011, 0.20824924111366272, 0.2752698063850403},
            {0.07741699367761612, 0.13361692428588867, 0.04636650159955025},
        },
        {
            {-0.04817098751664162, -0.1338140368461609, -0.4186019003391266},
            {-0.5342345833778381, -0.28762131929397583, -0.3090642988681793},
            {-0.07685182988643646, -0.13743048906326294, 0.01744287647306919},
        },
        {
            {-0.4572378396987915, -0.6683250069618225, -0.9050049185752869},
            {-0.07941446453332901, 0.16292741894721985, 0.1195717304944992},
            {0.012908488512039185, 0.3150324821472168, 0.3592531979084015},
        },
        {
            {-0.29493552446365356, -0.42809316515922546, -0.4835774004459381},
            {0.17742589116096497, 0.16659541428089142, 0.13021087646484375},
            {0.25322961807250977, 0.31753867864608765, 0.21445754170417786},
        },
        {
            {0.1959719955921173, 0.050755199044942856, -0.03530449792742729},
            {0.18974857032299042, 0.09113064408302307, 0.15206533670425415},
            {-0.3080906271934509, -0.13327656686306, -0.1881624460220337},
        },
        {
            {-0.30465373396873474, -0.7521169185638428, -0.512677788734436},
            {0.23688821494579315, 0.4298742711544037, 0.4519196152687073},
            {0.35291147232055664, 0.5388471484184265, 0.5164756774902344},
        },
        {
            {-0.041781555861234665, 0.050263576209545135, -0.03210986778140068},
            {0.02119572088122368, -0.025929044932127, -0.05360907316207886},
            {-0.005735248327255249, -0.06086423993110657, 0.06534750759601593},
        },
        {
            {0.16888900101184845, 0.10112754255533218, 0.06515063345432281},
            {0.01837177947163582, 0.16882166266441345, 0.06644874811172485},
            {-0.35464733839035034, -0.2639957070350647, -0.272935152053833},
        },
        {
            {0.02654336392879486, -0.05368957668542862, -0.022761939093470573},
            {0.12985225021839142, 0.28061777353286743, 0.14751829206943512},
            {0.008301791734993458, 0.10074635595083237, -0.01590900309383869},
        },
        {
            {-0.07928836345672607, 0.036549460142850876, -0.0301195215433836},
            {0.23339983820915222, 0.11743612587451935, 0.07221509516239166},
            {-0.052033714950084686, -0.06500259041786194, -0.01941019669175148},
        },
        {
            {0.17143625020980835, 0.010540420189499855, 0.02130230702459812},
            {0.037113580852746964, 0.1492270976305008, 0.16383039951324463},
            {-0.2131270170211792, -0.30879509449005127, -0.2361692488193512},
        },
        {
            {0.1565764844417572, -0.0335363931953907, 0.11461415141820908},
            {-0.015019184909760952, 0.05656706914305687, 0.11303632706403732},
            {-0.07080385088920593, -0.07567281275987625, -0.10162276774644852},
        },
        {
            {-0.25361010432243347, -0.25079870223999023, -0.12171406298875809},
            {-0.14233505725860596, -0.12568995356559753, -0.2512260377407074},
            {0.07088389992713928, 0.003514991607517004, -0.04186001420021057},
        },
        {
            {0.09800706058740616, 0.049768589437007904, -0.061479680240154266},
            {0.18660272657871246, 0.10803183168172836, 0.0512031689286232},
            {-0.09552080184221268, -0.20805788040161133, -0.3340010941028595},
        },
    },
    {
        {
            {0.14775164425373077, -0.12376867234706879, 0.06289491802453995},
            {0.08492766320705414, -0.06338495761156082, -0.1439470648765564},
            {0.11282214522361755, -0.10728497803211212, -0.13430601358413696},
        },
        {
            {-0.10529795289039612, 0.21748967468738556, 0.4269353151321411},
            {-0.7441884875297546, -0.37654992938041687, 0.5494962334632874},
            {-0.31480225920677185, -0.72334223985672, 0.16592316329479218},
        },
        {
            {0.10611988604068756, -0.014622201211750507, -0.0952763631939888},
            {-0.28771376609802246, 0.12333448231220245, -0.10372420400381088},
            {0.09684030711650848, -0.08314834535121918, 0.1487763524055481},
        },
        {
            {-0.26744529604911804, -0.31969597935676575, 0.18944920599460602},
            {0.01578804850578308, -0.31435149908065796, -0.165906623005867},
            {0.36563509702682495, -0.1265440583229065, -0.17776624858379364},
        },
        {
            {0.20815302431583405, 0.47919684648513794, -0.049491286277770996},
            {-0.3243212103843689, 0.6278122067451477, 0.5145823955535889},
            {0.1731398105621338, 0.19840270280838013, 0.60652756690979},
        },
        {
            {0.15947429835796356, -0.01925905980169773, -0.26548197865486145},
            {-0.3209850490093231, 0.10780134797096252, -0.09559743106365204},
            {-0.11798906326293945, -0.025682272389531136, 0.2906878888607025},
        },
        {
            {-0.007910878397524357, 0.23992493748664856, 0.09538980573415756},
            {-0.12052085995674133, 0.036955248564481735, 0.13118276000022888},
            {-0.13032813370227814, -0.08496442437171936, -0.038992542773485184},
        },
        {
            {0.24978908896446228, -0.09475526958703995, 0.10680415481328964},
            {-0.255238801240921, 0.1554631143808365, -0.2719278633594513},
            {0.12442705780267715, 0.11291717737913132, 0.16722404956817627},
        },
        {
            {0.06951931118965149, 0.0010291337966918945, 0.07653473317623138},
            {0.0674726590514183, -0.0820755884051323, 0.03788384050130844},
            {-0.056168101727962494, 0.0771418958902359, -0.002961625810712576},
        },
        {
            {0.025431891903281212, 0.09930431842803955, -0.07377079874277115},
            {-0.0005860388628207147, -0.0396309494972229, -0.11869733780622482},
            {-0.11156237870454788, -0.05859939754009247, -0.04171915724873543},
        },
        {
            {0.024283064529299736, 0.016814760863780975, 0.020375002175569534},
            {0.015792444348335266, 0.06280368566513062, -0.22199435532093048},
            {0.0536700077354908, -0.02515995502471924, 0.037737928330898285},
        },
        {
            {0.06970374286174774, 0.03133491799235344, -0.21926796436309814},
            {-0.20531339943408966, 0.0156325101852417, -0.024513106793165207},
            {-0.0985027626156807, 0.04775566607713699, 0.248834490776062},
        },
        {
            {0.046956680715084076, 0.04755708575248718, -0.06728741526603699},
            {-0.017198454588651657, -0.005177395883947611, -0.0036892530042678118},
            {-0.19157777726650238, -0.06517898291349411, 0.05199708417057991},
        },
        {
            {0.057659368962049484, -0.011237635277211666, -0.046630628407001495},
            {-0.03624458983540535, -0.05928649380803108, 0.02389751560986042},
            {0.004684230778366327, -0.17006629705429077, 0.03489740565419197},
        },
        {
            {-0.05975734069943428, -0.16616269946098328, -0.05222184583544731},
            {-0.12052705138921738, -0.07757490873336792, 0.1684729903936386},
            {-0.2955874502658844, -0.043043605983257294, 0.20429627597332},
        },
        {
            {0.09138183295726776, 0.3220868706703186, 0.2633759677410126},
            {-0.3430873155593872, -0.18064914643764496, 0.3510788083076477},
            {-0.28384506702423096, -0.47625643014907837, -0.1156587079167366},
        },
    },
    {
        {
            {0.21041379868984222, -0.1009628027677536, 0.1301281750202179},
            {-0.27934300899505615, 0.1363886594772339, 0.42034533619880676},
            {0.2406681776046753, 0.3632662892341614, -0.01808558590710163},
        },
        {
            {-0.22670727968215942, -0.008603028953075409, -0.2607700228691101},
            {-0.04966399446129799, -0.33041834831237793, -0.3324424624443054},
            {-0.03329068049788475, -0.023408155888319016, -0.02616867795586586},
        },
        {
            {0.14254595339298248, 0.13376447558403015, -0.22674766182899475},
            {-0.031932584941387177, -0.12000419944524765, 0.22266846895217896},
            {-0.32159826159477234, 0.14959870278835297, 0.23160503804683685},
        },
        {
            {-0.24897678196430206, -0.014621727168560028, 0.15827824175357819},
            {0.11479400098323822, 0.14532655477523804, 0.4128133952617645},
            {0.06890367716550827, 0.5597525238990784, 0.3307057023048401},
        },
        {
            {0.29776731133461, 0.5740248560905457, 0.04497180134057999},
            {0.2379431426525116, -0.14694541692733765, -0.3983825147151947},
            {-0.3188225030899048, -0.2939254939556122, -0.3087158203125},
        },
        {
            {0.2784988284111023, 0.10892105102539062, -0.0649399533867836},
            {0.039619430899620056, -0.0773925855755806, -0.24516350030899048},
            {-0.20841145515441895, -0.0019095581956207752, -0.25808435678482056},
        },
        {
            {-0.33460837602615356, 0.05381139740347862, -0.08440990746021271},
            {-0.22511908411979675, -0.15170986950397491, -0.10733889043331146},
            {0.0872972384095192, 0.03071698173880577, 0.006300040986388922},
        },
        {
            {0.4196936786174774, 0.3335232734680176, -0.3065227270126343},
            {0.10290677845478058, -0.4466807544231415, 0.05570252239704132},
            {-0.3089975118637085, 0.19183115661144257, 0.1717882603406906},
        },
        {
            {-0.0354987196624279, -0.05522961542010307, 0.06832802295684814},
            {-0.037327997386455536, -0.06937578320503235, -0.03582444787025452},
            {0.018901100382208824, 0.06345241516828537, 0.07857941836118698},
        },
        {
            {-0.15344060957431793, -0.2273651510477066, -0.03491152822971344},
            {-0.33153295516967773, 0.13299784064292908, 0.2246127724647522},
            {0.0976785197854042, 0.14590543508529663, -0.1199871227145195},
        },
        {
            {0.09146653115749359, -0.1767970323562622, -0.10621359944343567},
            {-0.2626359462738037, 0.0754004716873169, 0.35531145334243774},
            {-0.02004881389439106, 0.20068544149398804, 0.10699361562728882},
        },
        {
            {-0.2378808706998825, -0.05285896360874176, 0.168654203414917},
            {8.382095984416083e-05, 0.2566455900669098, -0.22014832496643066},
            {0.10157770663499832, 0.020314335823059082, -0.08591755479574203},
        },
        {
            {-0.2079390287399292, -0.13725817203521729, 0.1124967485666275},
            {-0.37056493759155273, 0.09549602121114731, 0.04608604684472084},
            {0.22655189037322998, 0.11877218633890152, -0.2075696885585785},
        },
        {
            {-0.18312549591064453, -0.10653196275234222, -0.005382759030908346},
            {-0.3343243896961212, -0.05190105363726616, 0.13406625390052795},
            {0.18601365387439728, 0.15100596845149994, -0.16380266845226288},
        },
        {
            {-0.2085450291633606, 0.039412036538124084, -0.3192988634109497},
            {-0.12412689626216888, -0.4095540940761566, -0.3025008738040924},
            {-0.21002265810966492, -0.2015269696712494, -0.0661446750164032},
        },
        {
            {-0.11150909960269928, -0.012109310366213322, -0.061024103313684464},
            {-0.12676100432872772, -0.07588925212621689, -0.13033857941627502},
            {0.0281500406563282, 0.10270487517118454, 0.020214876160025597},
        },
    },
    {
        {
            {-0.12352389842271805, -0.056346215307712555, -0.05231158062815666},
            {-0.08851629495620728, 0.009135850705206394, -0.061560045927762985},
            {-0.04739658907055855, 0.0050577144138514996, 0.1735599935054779},
        },
        {
            {-0.059302400797605515, -0.11472773551940918, -0.24028222262859344},
            {-0.16630756855010986, 0.16269022226333618, 0.17192791402339935},
            {-0.1605539321899414, -0.005339137744158506, 0.20473617315292358},
        },
        {
            {-0.09164877235889435, -0.03893623873591423, -0.07907886803150177},
            {-0.10951050370931625, -0.02775038406252861, -0.10444347560405731},
            {-0.01401203777641058, 0.09744724631309509, -0.014285978861153126},
        },
        {
            {-0.44237926602363586, -0.6219736337661743, -0.4266389310359955},
            {-0.4591563940048218, -0.4980916976928711, -0.04143480956554413},
            {-0.21170826256275177, -0.39969000220298767, 0.20978938043117523},
        },
        {
            {-0.027178488671779633, -0.1460588425397873, -0.11985617130994797},
            {-0.25061166286468506, -0.33271947503089905, -0.5258892178535461},
            {-0.19098755717277527, -0.26107674837112427, -0.4526851773262024},
        },
        {
            {0.13005129992961884, 0.13616742193698883, 0.006532022729516029},
            {0.04069508612155914, -0.07647616416215897, -0.11346987634897232},
            {0.09975959360599518, -0.13672444224357605, -0.14542156457901},
        },
        {
            {-0.09819594025611877, -0.04857878014445305, 0.04194129258394241},
            {-0.027387432754039764, 0.1655811220407486, 0.053540341556072235},
            {0.004004086367785931, 0.09641444683074951, 0.15362289547920227},
        },
        {
            {0.09713807702064514, 0.23218479752540588, -0.0724206492304802},
            {-0.48931995034217834, -0.6009272336959839, -0.44764649868011475},
            {-0.24521607160568237, -0.5175063014030457, -0.5821924209594727},
        },
        {
            {0.03524860739707947, -0.05370531603693962, 0.0646754652261734},
            {0.0653320848941803, 0.011289775371551514, 0.00895010493695736},
            {0.01929314061999321, 0.03668871521949768, -0.010119587182998657},
        },
        {
            {-0.21508702635765076, -0.12794114649295807, -0.056565504521131516},
            {0.10799909383058548, 0.14569887518882751, 0.0875435546040535},
            {-0.036472927778959274, 0.01703614927828312, 0.21401046216487885},
        },
        {
            {-0.1499653160572052, -0.08153074979782104, -0.09363486617803574},
            {-0.13760578632354736, -0.018658380955457687, -0.0503653958439827},
            {-0.03498387709259987, -0.0013518350897356868, 0.012865708209574223},
        },
        {
            {-0.0659639909863472, -0.12489964812994003, -0.14874686300754547},
            {0.01640176773071289, -0.03743726387619972, 0.010123522020876408},
            {0.17575791478157043, 0.194467231631279, -0.028770143166184425},
        },
        {
            {-0.18414932489395142, 0.04074185714125633, -0.05035349726676941},
            {0.15996044874191284, 0.055860210210084915, 0.025741228833794594},
            {0.04874575138092041, 0.16685497760772705, 0.20629781484603882},
        },
        {
            {-0.05207281559705734, 0.01627345010638237, 0.10849209874868393},
            {0.06187739223241806, 0.13420790433883667, 0.09688940644264221},
            {0.004946384113281965, 0.06743136048316956, 0.06683143228292465},
        },
        {
            {0.005605412647128105, 0.12618809938430786, 0.025606706738471985},
            {-0.15419146418571472, 0.13376641273498535, 0.22341224551200867},
            {-0.013179645873606205, 0.0576765313744545, 0.2333747148513794},
        },
        {
            {-0.06572684645652771, -0.0030025364831089973, -0.08449605107307434},
            {0.030462026596069336, 0.2656102478504181, 0.1234583780169487},
            {-0.09586825966835022, 0.11381878703832626, 0.09492482244968414},
        },
    },
    {
        {
            {0.10954131931066513, 0.1838339865207672, 0.07102426141500473},
            {0.14965958893299103, 0.13408106565475464, -0.03856760263442993},
            {0.02258232980966568, 0.027228230610489845, -0.01671275869011879},
        },
        {
            {-0.21258985996246338, -0.08446213603019714, 0.04587617516517639},
            {-0.09899158775806427, 0.1824505776166916, -0.05421115830540657},
            {0.2545689046382904, 0.23982365429401398, -0.061622560024261475},
        },
        {
            {-0.16559496521949768, 0.10854185372591019, 0.2514199912548065},
            {-0.03560576215386391, 0.1375475972890854, -0.0451805479824543},
            {0.09852676093578339, -0.1427575647830963, -0.1256287842988968},
        },
        {
            {-0.04737108573317528, 0.01494524721056223, -0.2236492931842804},
            {0.41688108444213867, 0.36223500967025757, -0.16274718940258026},
            {0.2472708523273468, 0.24297401309013367, 0.13802462816238403},
        },
        {
            {-0.15730178356170654, -0.08104314655065536, 0.20809631049633026},
            {-0.013817846775054932, -0.24876797199249268, 0.39714300632476807},
            {0.3525678813457489, 0.08639068156480789, 0.38510653376579285},
        },
        {
            {-0.28646886348724365, -0.07155024260282516, 0.3226602375507355},
            {-0.10345818847417831, -0.22363275289535522, 0.15341006219387054},
            {-0.027902083471417427, -0.23709002137184143, 0.2703763544559479},
        },
        {
            {0.06474839895963669, 0.010960625484585762, 0.07369156181812286},
            {0.12430798262357712, 0.10980874300003052, -0.11125991493463516},
            {0.19216327369213104, 0.12617625296115875, -0.20987458527088165},
        },
        {
            {-0.2488652616739273, 0.14573346078395844, 0.3060946464538574},
            {-0.5482457876205444, -0.050979308784008026, 0.042147524654865265},
            {-0.5671147108078003, -0.5282872319221497, 0.1910359263420105},
        },
        {
            {-0.06490954756736755, 0.027300219982862473, -0.07148116827011108},
            {0.04977937787771225, -0.02230129763484001, 0.08006881177425385},
            {-0.05569332093000412, -0.041614942252635956, 0.02160031720995903},
        },
        {
            {0.04649747908115387, 0.14497508108615875, -0.03135129436850548},
            {0.07404449582099915, 0.02343372069299221, -0.13151103258132935},
            {0.002468214137479663, 0.036360982805490494, -0.15568707883358002},
        },
        {
            {-0.0907767042517662, 0.11856002360582352, 0.1667577624320984},
            {0.046431124210357666, 0.15612226724624634, -0.07145152240991592},
            {0.0425448939204216, -0.029391631484031677, -0.01676185615360737},
        },
        {
            {0.06303366273641586, -0.03343883156776428, 0.1277206540107727},
            {0.19067972898483276, 0.02724391594529152, 0.23246951401233673},
            {0.28498491644859314, -0.18514998257160187, -0.2218368649482727},
        },
        {
            {0.005204376298934221, 0.13416673243045807, 0.06671974062919617},
            {0.07777458429336548, 0.029398255050182343, -0.10657060146331787},
            {-0.047326963394880295, -0.010796326212584972, -0.3722246587276459},
        },
        {
            {-0.0846816897392273, -0.0362827330827713, -0.06542524695396423},
            {0.044421207159757614, 0.04247763752937317, -0.16029579937458038},
            {-0.01658526062965393, -0.2087719887495041, -0.1989908218383789},
        },
        {
            {-0.4701286554336548, -0.6654471158981323, -0.5356526970863342},
            {-0.4472034275531769, -0.43493562936782837, -0.4173275828361511},
            {-0.02451596036553383, 0.0653572604060173, -0.23413796722888947},
        },
        {
            {-0.011447049677371979, -0.028420189395546913, -0.027133993804454803},
            {-0.1809147149324417, 0.004129073582589626, -0.01449231244623661},
            {0.10734422504901886, 0.12176869064569473, -0.11849335581064224},
        },
    },
    {
        {
            {0.11162024736404419, 0.1349259912967682, 0.16512183845043182},
            {-0.24565671384334564, -0.20755372941493988, -0.07644489407539368},
            {-0.14251203835010529, -0.11744129657745361, -0.2027716040611267},
        },
        {
            {0.09881256520748138, -0.013691144995391369, -0.15055201947689056},
            {-0.27277177572250366, 0.17927910387516022, 0.42642438411712646},
            {-0.5053687691688538, -0.12616027891635895, 0.10400661826133728},
        },
        {
            {0.014592364430427551, -0.06105920672416687, 0.1537042111158371},
            {-0.0531671904027462, 0.01111918780952692, -0.07115589827299118},
            {-0.01678554154932499, 0.0864928811788559, 0.11379341036081314},
        },
        {
            {-0.21116305887699127, -0.20098678767681122, 0.09922420233488083},
            {-0.05927133560180664, -0.23365183174610138, -0.3457311689853668},
            {-0.11125604808330536, -0.6077569723129272, -0.6676316857337952},
        },
        {
            {0.29063037037849426, 0.0581841766834259, -0.27960205078125},
            {-0.15142245590686798, 0.08435747027397156, 0.13790909945964813},
            {0.47426527738571167, 0.11420249193906784, 0.14213623106479645},
        },
        {
            {-0.02255789190530777, -0.25669965147972107, -0.13185268640518188},
            {-0.1765982061624527, -0.10574976354837418, -0.06768745929002762},
            {0.14913910627365112, -0.15784387290477753, 0.05000165104866028},
        },
        {
            {0.0969443991780281, 0.07392894476652145, 0.11989790201187134},
            {-0.04408440738916397, 0.1511877179145813, 0.2669542133808136},
            {0.08665145188570023, 0.026494411751627922, 0.1803169995546341},
        },
        {
            {-0.029745202511548996, -0.15446007251739502, -0.04955975338816643},
            {-0.25561609864234924, -0.33460408449172974, -0.3270508050918579},
            {0.08961092680692673, 0.21823491156101227, 0.2629868686199188},
        },
        {
            {-0.019520094618201256, -0.02722705528140068, 0.06189943477511406},
            {-0.017626315355300903, -0.08056358993053436, 0.004251440521329641},
            {0.02086563967168331, -0.0019505819072946906, -0.06873054802417755},
        },
        {
            {0.07167387008666992, 0.12302364408969879, 0.1493089646100998},
            {-0.027443431317806244, 0.015011481009423733, 0.08231965452432632},
            {-0.08411155641078949, -0.039473798125982285, 0.05752202868461609},
        },
        {
            {0.12350351363420486, 0.252112478017807, 0.14605936408042908},
            {-0.12604853510856628, -0.11860129982233047, -0.050363220274448395},
            {-0.18445345759391785, 0.006597755942493677, 0.0039215064607560635},
        },
        {
            {0.14265181124210358, 0.057939235121011734, -0.08270961046218872},
            {0.08513277769088745, -0.11850893497467041, -0.03831877186894417},
            {0.12839530408382416, -0.17110012471675873, 0.12697556614875793},
        },
        {
            {0.12136877328157425, 0.11738034337759018, -0.09324944764375687},
            {0.08313822746276855, -0.055121324956417084, 0.09536580741405487},
            {-0.04967878386378288, 0.041592665016651154, 0.13018064200878143},
        },
        {
            {0.007751311641186476, 0.13563165068626404, 0.006388282869011164},
            {0.05288683995604515, -0.046653881669044495, 0.009086756967008114},
            {0.04760739207267761, -0.03828476741909981, 0.0030614992137998343},
        },
        {
            {-0.21700729429721832, -0.2760326862335205, -0.48535582423210144},
            {-0.35171252489089966, 0.016465067863464355, 0.09732401371002197},
            {-0.20974907279014587, -0.07483385503292084, 0.10906221717596054},
        },
        {
            {0.2836661636829376, 0.10259421914815903, -0.013746771961450577},
            {-0.11099015176296234, 0.09726490825414658, 0.28802183270454407},
            {-0.3585777282714844, 0.12188107520341873, 0.07609163969755173},
        },
    },
    {
        {
            {0.36104848980903625, 0.16631850600242615, -0.16714462637901306},
            {-0.20645445585250854, -0.19728060066699982, -0.08093545585870743},
            {0.06885598599910736, 0.315694123506546, 0.22591254115104675},
        },
        {
            {0.0496036559343338, -0.13993613421916962, -0.1854809671640396},
            {-0.6652675271034241, -0.6397759318351746, -0.26329681277275085},
            {-0.1504976600408554, 0.11010037362575531, -0.08096271008253098},
        },
        {
            {0.3046101927757263, 0.12929369509220123, -0.018436623737215996},
            {0.18307183682918549, -0.27032020688056946, -0.06828689575195312},
            {-0.29725342988967896, 0.14695265889167786, 0.13756391406059265},
        },
        {
            {0.41654422879219055, 0.1561729907989502, -0.17967015504837036},
            {-0.05594049394130707, -0.6456303596496582, -0.35465434193611145},
            {-0.23247958719730377, -0.09692653268575668, -0.2578299343585968},
        },
        {
            {0.15775588154792786, -0.009664171375334263, 0.13290058076381683},
            {-0.09835721552371979, -0.40365076065063477, -0.26445478200912476},
            {-0.6066471934318542, -0.14993619918823242, -0.05908581241965294},
        },
        {
            {0.13809636235237122, 0.12922759354114532, -0.0561499297618866},
            {0.005134789738804102, -0.2625497281551361, -0.3385353982448578},
            {-0.2566174566745758, 0.19806723296642303, 0.12171582132577896},
        },
        {
            {0.2303229719400406, 0.04510710388422012, -0.25307005643844604},
            {-0.1997496634721756, -0.203379824757576, 0.004729746375232935},
            {0.022316105663776398, 0.19334182143211365, -0.01267313864082098},
        },
        {
            {0.30990684032440186, 0.2313517928123474, 0.14607307314872742},
            {0.24025963246822357, -0.28347906470298767, -0.07407493889331818},
            {-0.7307550311088562, -0.11059309542179108, 0.31310799717903137},
        },
        {
            {-0.06705053895711899, -0.03912336751818657, -0.05835042521357536},
            {-0.0034631392918527126, 0.006781677715480328, -0.05977585166692734},
            {0.0579051673412323, -0.047845374792814255, 0.07711662352085114},
        },
        {
            {0.15262353420257568, -0.08832798153162003, -0.19733944535255432},
            {-0.36618587374687195, -0.04116397351026535, 0.17053437232971191},
            {0.20800481736660004, 0.3533530533313751, 0.08060105890035629},
        },
        {
            {0.18331830203533173, 0.2176802158355713, -0.11576017737388611},
            {-0.1583249717950821, -0.27208372950553894, -0.12256896495819092},
            {-0.024873245507478714, 0.21239833533763885, 0.22318510711193085},
        },
        {
            {0.16263186931610107, -0.08469526469707489, -0.12672463059425354},
            {0.002638717880472541, 0.004951019771397114, 0.007762507069855928},
            {0.07098574191331863, 0.06384538859128952, -0.14570215344429016},
        },
        {
            {0.12388850748538971, -0.19337324798107147, -0.13213707506656647},
            {-0.36952656507492065, -0.1416962444782257, 0.14914551377296448},
            {0.22441363334655762, 0.22994284331798553, 0.027840694412589073},
        },
        {
            {0.1843840628862381, 0.0372401624917984, -0.08678147196769714},
            {-0.21813754737377167, -0.0037961979396641254, 0.13963155448436737},
            {0.11481165140867233, 0.17801375687122345, 0.09750036895275116},
        },
        {
            {0.2531701624393463, -0.19089674949645996, 0.08210129290819168},
            {-0.12467581778764725, -0.3183789551258087, -0.22965335845947266},
            {-0.025436105206608772, 0.07342695444822311, 0.13812685012817383},
        },
        {
            {0.11325472593307495, -0.15454702079296112, -0.22871805727481842},
            {-0.43347424268722534, 0.033570725470781326, 0.09620510786771774},
            {-0.07632952928543091, 0.3278891146183014, 0.03848804906010628},
        },
    },
    {
        {
            {0.05387549102306366, 0.09421095252037048, 0.12188354879617691},
            {0.18552391231060028, 0.293545126914978, 0.052041832357645035},
            {0.16373339295387268, 0.0671544224023819, -0.2714649438858032},
        },
        {
            {0.22420060634613037, -0.34355565905570984, -0.23211157321929932},
            {0.0861300602555275, -0.1366414725780487, -0.5684120655059814},
            {-0.07122691720724106, 0.07018113136291504, -0.17122621834278107},
        },
        {
            {0.008973443880677223, -0.11736749112606049, -0.04223427176475525},
            {-0.09061812609434128, 0.017810596153140068, -0.021886322647333145},
            {-0.017575114965438843, 0.3185257017612457, 0.057298608124256134},
        },
        {
            {-0.08769484609365463, -0.12652520835399628, 0.0808287039399147},
            {0.12183219939470291, 0.3092728555202484, 0.35218214988708496},
            {0.3367396891117096, 0.05397055298089981, -0.07712391018867493},
        },
        {
            {0.8382042050361633, 0.5965750813484192, -0.24738705158233643},
            {0.3634405732154846, 0.18721792101860046, 0.017952539026737213},
            {-0.1715223789215088, -0.010153115727007389, 0.3601989150047302},
        },
        {
            {0.22876277565956116, -0.07401274144649506, -0.18253986537456512},
            {0.05946812778711319, -0.07054390013217926, -0.23777176439762115},
            {-0.1899789273738861, -0.02303975075483322, 0.015181508846580982},
        },
        {
            {0.0051690973341465, -0.04582246020436287, 0.01465101819485426},
            {-0.027399465441703796, 0.043872393667697906, 0.07874072343111038},
            {-0.002686095656827092, 0.01661832630634308, -0.035829849541187286},
        },
        {
            {0.26890450716018677, -0.05699874833226204, 0.012306690216064453},
            {-0.1278860718011856, 0.03133782744407654, -0.10034285485744476},
            {0.14054489135742188, 0.41101333498954773, 0.320401668548584},
        },
        {
            {-0.05273545905947685, -0.04066013544797897, -0.008837243542075157},
            {-0.004790008068084717, 0.02570238709449768, 0.04868008941411972},
            {0.049128543585538864, 0.08282177150249481, -0.031438153237104416},
        },
        {
            {-0.3001203238964081, 0.13075150549411774, 0.035462237894535065},
            {-0.0927157998085022, 0.23921795189380646, 0.013579654507339},
            {0.11022666096687317, -0.07100781053304672, -0.32971420884132385},
        },
        {
            {-0.161573126912117, -0.15903295576572418, 0.11300505697727203},
            {-0.166965052485466, 0.06604499369859695, -0.038163118064403534},
            {0.17813599109649658, 0.06794809550046921, -0.22858485579490662},
        },
        {
            {0.05142088234424591, 0.22841426730155945, 0.22801028192043304},
            {0.19613860547542572, -0.025012874975800514, -0.1856476068496704},
            {-0.11207422614097595, -0.09832020848989487, -0.09251665323972702},
        },
        {
            {-0.26692691445350647, 0.05426042526960373, 0.09135915338993073},
            {-0.008868812583386898, 0.12323415279388428, -0.035335786640644073},
            {0.05143825337290764, -0.18091870844364166, -0.2357647716999054},
        },
        {
            {-0.1987466663122177, -0.10399603843688965, 0.046977538615465164},
            {-0.028532862663269043, 0.15220370888710022, -0.08607567846775055},
            {0.0060224574990570545, 0.05831455811858177, -0.2789333164691925},
        },
        {
            {0.09953232854604721, 0.07517159730195999, -0.3629721403121948},
            {-0.4244728088378906, -0.16597527265548706, -0.20282073318958282},
            {-0.5406534671783447, 0.1582326889038086, 0.2630971670150757},
        },
        {
            {0.11726581305265427, -0.2524089515209198, -0.029890183359384537},
            {-0.054330434650182724, -0.09644243121147156, -0.3457621932029724},
            {0.06257569044828415, -0.006076330319046974, -0.1759946495294571},
        },
    },
    {
        {
            {-0.015911588445305824, -0.1629122495651245, -0.35843992233276367},
            {-0.20073828101158142, -0.030489107593894005, 0.2764177620410919},
            {0.2575066387653351, 0.3144696056842804, 0.0719052404165268},
        },
        {
            {-0.08539403229951859, 0.0511813685297966, -0.08523517102003098},
            {-0.15947292745113373, -0.3295215368270874, -0.13298645615577698},
            {0.0943896472454071, -0.128131702542305, -0.31501325964927673},
        },
        {
            {0.421786367893219, -0.2435494363307953, -0.21633166074752808},
            {-0.7331179976463318, -0.3962681293487549, 0.21039772033691406},
            {0.09592278301715851, 0.10469833761453629, 0.03744703531265259},
        },
        {
            {0.25256645679473877, -0.11626197397708893, -0.628165602684021},
            {-0.5459758639335632, -0.546363890171051, -0.5092759728431702},
            {0.22359634935855865, -0.082367442548275, -0.0909385159611702},
        },
        {
            {0.46428826451301575, -0.32253503799438477, -0.14128477871418},
            {-0.37980085611343384, -0.2273574322462082, -0.4976522624492645},
            {0.14083345234394073, -0.30530524253845215, -0.22177155315876007},
        },
        {
            {0.29082542657852173, -0.094333216547966, -0.1806204468011856},
            {-0.3164146840572357, -0.4082821011543274, -0.1554604172706604},
            {0.07286223769187927, -0.23179319500923157, -0.21776583790779114},
        },
        {
            {0.15040262043476105, -0.2819444537162781, -0.0864892452955246},
            {-0.18873022496700287, 0.004598382860422134, 0.056434135884046555},
            {0.10168734192848206, -0.004178753588348627, -0.05362017825245857},
        },
        {
            {0.44122985005378723, -0.09256204217672348, 0.20507514476776123},
            {-0.4319573938846588, -0.29694846272468567, -0.03029485233128071},
            {0.24577298760414124, -0.05128038674592972, 0.31159695982933044},
        },
        {
            {-0.06104379892349243, -0.07177922129631042, 0.04388638585805893},
            {0.04892125725746155, 0.01679031178355217, -0.04720793291926384},
            {-0.025932371616363525, -0.08099361509084702, -0.05902324244379997},
        },
        {
            {-0.28266772627830505, -0.31624099612236023, -0.04658510163426399},
            {-0.13107629120349884, 0.12254565209150314, 0.10281136631965637},
            {0.1974949985742569, 0.15311279892921448, 0.005592059809714556},
        },
        {
            {0.15079490840435028, -0.2183447629213333, -0.3693476617336273},
            {-0.35089778900146484, -0.27694860100746155, 0.17756350338459015},
            {0.24697884917259216, 0.25137925148010254, 0.0037852097302675247},
        },
        {
            {-0.005004377104341984, -0.27512356638908386, -0.07711822539567947},
            {-0.25035029649734497, 0.09923258423805237, -0.0013109615538269281},
            {0.24407914280891418, 0.016585933044552803, -0.036062248051166534},
        },
        {
            {-0.20078106224536896, -0.32004955410957336, -0.06479131430387497},
            {-0.1849200278520584, 0.13355156779289246, 0.13602207601070404},
            {0.1429455727338791, 0.10304330289363861, 0.05844459682703018},
        },
        {
            {0.0007952097221277654, -0.04797592759132385, -0.0545450896024704},
            {-0.14850978553295135, -0.009201905690133572, 0.04942290857434273},
            {0.13935115933418274, 0.07484880834817886, 0.07826955616474152},
        },
        {
            {0.06696447730064392, 0.03630668669939041, -0.035516075789928436},
            {0.16108302772045135, -0.180477112531662, -0.15765921771526337},
            {-0.13919483125209808, -0.10608495026826859, -0.16223891079425812},
        },
        {
            {-0.025554947555065155, -0.3147750496864319, 0.13653092086315155},
            {0.03176237642765045, 0.03819385543465614, 0.08597055822610855},
            {0.09668813645839691, 0.05493605509400368, 0.050091732293367386},
        },
    },
    {
        {
            {-0.08477652072906494, 0.12392669171094894, 0.10170240700244904},
            {-0.06078416854143143, 0.10667817294597626, 0.060060568153858185},
            {-0.157832533121109, -0.2674924433231354, -0.07739339023828506},
        },
        {
            {0.30392616987228394, 0.2751285135746002, 0.18369050323963165},
            {-0.0032477902714163065, -0.4973173141479492, -0.38909271359443665},
            {0.04965999349951744, -0.2828800678253174, -0.24762479960918427},
        },
        {
            {0.05003915727138519, -0.020142361521720886, 0.02172684110701084},
            {0.13052251935005188, 0.30619117617607117, 0.32342344522476196},
            {-0.25691545009613037, -0.33841007947921753, -0.2695796489715576},
        },
        {
            {-0.3306259214878082, -0.507590115070343, -0.6293922662734985},
            {-0.3854188323020935, -0.3671126365661621, -0.25504449009895325},
            {-0.229701429605484, -0.3932148814201355, 0.01344370562583208},
        },
        {
            {0.3943479359149933, -0.13980770111083984, -0.13777220249176025},
            {0.2299167662858963, 0.3254307210445404, 0.22836408019065857},
            {-0.35319826006889343, -0.5478683114051819, -0.6697518229484558},
        },
        {
            {0.3106471300125122, -0.026417620480060577, -0.04776793718338013},
            {0.24643151462078094, 0.21623145043849945, 0.1389048993587494},
            {-0.14181700348854065, -0.38545238971710205, -0.3748398721218109},
        },
        {
            {0.010071581229567528, 0.0916580930352211, 0.04324567690491676},
            {-0.06204704940319061, 0.13838040828704834, -0.0781625360250473},
            {-0.1565013974905014, -0.12267100811004639, -0.2293241322040558},
        },
        {
            {0.18313919007778168, 0.13022558391094208, 0.18843497335910797},
            {0.1978142410516739, 0.4015124440193176, 0.7063222527503967},
            {0.1597781628370285, 0.06925457715988159, -0.27958059310913086},
        },
        {
            {0.014641782268881798, 0.007448047399520874, -0.06690072268247604},
            {0.0056768557988107204, -0.04007154703140259, 0.07399799674749374},
            {-0.0007473131408914924, -0.03449104353785515, 0.046016424894332886},
        },
        {
            {0.1342923790216446, 0.13364063203334808, 0.1742054969072342},
            {-0.27119380235671997, -0.17128713428974152, -0.1531810611486435},
            {-0.33220401406288147, -0.02429848723113537, 0.0723348930478096},
        },
        {
            {-0.07835765928030014, -0.02093963325023651, 0.15057729184627533},
            {0.1398419290781021, 0.18397904932498932, 0.07869212329387665},
            {-0.2512487471103668, -0.33565524220466614, -0.21123693883419037},
        },
        {
            {0.215239018201828, -0.03529074043035507, 0.06913471966981888},
            {0.23005330562591553, 0.042743876576423645, 0.047117628157138824},
            {-0.19968461990356445, -0.21283301711082458, 0.03745212405920029},
        },
        {
            {-0.022480003535747528, 0.1513497531414032, 0.16573968529701233},
            {-0.02596079371869564, -0.017165150493383408, -0.016534417867660522},
            {-0.12945722043514252, -0.1406051069498062, -0.01765826717019081},
        },
        {
            {-0.044197484850883484, 0.009726165793836117, 0.0034073865972459316},
            {-0.19872289896011353, -0.026425423100590706, -0.0010312158847227693},
            {-0.22407661378383636, -0.19726449251174927, 0.057740166783332825},
        },
        {
            {0.11475013196468353, -0.08217917382717133, -0.40891626477241516},
            {0.11764296144247055, -0.2842525541782379, -0.01731584221124649},
            {-0.09231369942426682, 0.040458306670188904, -0.02961811237037182},
        },
        {
            {0.17522093653678894, 0.2670377492904663, 0.1529574990272522},
            {-0.12288303673267365, 0.09070119261741638, -0.11796995997428894},
            {-0.0018050632206723094, -0.11561644077301025, -0.20042924582958221},
        },
    },
    {
        {
            {0.04393459111452103, -0.10305929183959961, -0.04199958220124245},
            {0.20654793083667755, 0.07604843378067017, 0.1657804250717163},
            {-0.27906885743141174, -0.17417912185192108, 0.05529635027050972},
        },
        {
            {-0.063065305352211, -0.005582498386502266, 0.07843020558357239},
            {0.31220224499702454, 0.28576067090034485, 0.21989761292934418},
            {-0.012591801583766937, 0.01415313221514225, 0.18186570703983307},
        },
        {
            {-0.11649323999881744, -0.09565474092960358, -0.1684541404247284},
            {0.3163410723209381, -0.03025592863559723, -0.17481167614459991},
            {-0.03433690220117569, 0.2334165871143341, -0.04850862920284271},
        },
        {
            {0.11668132245540619, 0.14853492379188538, 0.1573111116886139},
            {0.11663004010915756, 0.13377784192562103, 0.4657253623008728},
            {-0.27823543548583984, -0.05154728516936302, 0.06432153284549713},
        },
        {
            {0.10352324694395065, -0.13561585545539856, -0.1904805302619934},
            {0.5439916253089905, 0.43682363629341125, -0.33432066440582275},
            {-0.3032311499118805, 0.038497552275657654, -0.2942602038383484},
        },
        {
            {-0.005444373469799757, 0.14222128689289093, -0.20762211084365845},
            {0.4639336168766022, 0.23273028433322906, -0.26695701479911804},
            {-0.023227911442518234, 0.17750284075737, -0.07732146978378296},
        },
        {
            {-0.25331979990005493, -0.014736068435013294, -0.2877315878868103},
            {0.12291089445352554, 0.051284145563840866, -0.036811456084251404},
            {-0.27514776587486267, 0.020239392295479774, -0.022595282644033432},
        },
        {
            {0.039038967341184616, -0.0410495363175869, -0.24420490860939026},
            {0.4084656536579132, -0.09271758794784546, -0.23691074550151825},
            {0.17833133041858673, 0.3133692741394043, -0.09493207931518555},
        },
        {
            {-0.01381579041481018, 0.008682578802108765, 0.07128393650054932},
            {-0.01594792865216732, -0.050008803606033325, -0.02879123017191887},
            {-0.02474207803606987, -0.06706467270851135, 0.03185003250837326},
        },
        {
            {-0.23531833291053772, -0.154647558927536, -0.08261249214410782},
            {-0.058274045586586, 0.2415957748889923, -0.0680772140622139},
            {-0.2935332655906677, 0.06668932735919952, -0.18820682168006897},
        },
        {
            {-0.06504662334918976, -0.17643293738365173, -0.04397215694189072},
            {0.15710359811782837, -0.06669607013463974, 0.13641564548015594},
            {-0.20399348437786102, 0.03988559916615486, 0.12206611037254333},
        },
        {
            {-0.12887537479400635, -0.046949319541454315, -0.0727139562368393},
            {0.20038138329982758, 0.14600270986557007, -0.18079517781734467},
            {0.06862565875053406, 0.1360391080379486, -0.1874810755252838},
        },
        {
            {-0.3034500479698181, -0.06146552413702011, -0.15377214550971985},
            {0.08933140337467194, 0.1328842043876648, -0.1477346420288086},
            {-0.2646523416042328, 0.05260096862912178, -0.10048758238554001},
        },
        {
            {-0.1839597523212433, -0.140101820230484, -0.19433321058750153},
            {-0.12790443003177643, 0.0915512815117836, 0.0107483034953475},
            {-0.27426356077194214, -0.0019140575313940644, -0.17468449473381042},
        },
        {
            {0.10311807692050934, -0.03469549119472504, 0.06050576642155647},
            {0.0908820703625679, 0.10133560001850128, 0.06205498427152634},
            {0.1378829926252365, -0.017976747825741768, 0.07201390713453293},
        },
        {
            {-0.26514771580696106, 0.07419195026159286, -0.012904460541903973},
            {0.38036543130874634, 0.24141377210617065, 0.024093609303236008},
            {-0.3534071147441864, -0.04394381493330002, 0.07421327382326126},
        },
    },
    {
        {
            {-0.09126365929841995, 0.08946113288402557, 0.18920257687568665},
            {-0.20887425541877747, -0.2287180870771408, -0.08288227766752243},
            {-0.2801811099052429, -0.1509893387556076, -0.04192418232560158},
        },
        {
            {-0.5150510668754578, 0.2807985544204712, 0.20710213482379913},
            {-0.8481596112251282, 0.0924200788140297, 0.7383403778076172},
            {-0.5950371623039246, -0.0804574266076088, 0.44715210795402527},
        },
        {
            {0.08054651319980621, 0.030132969841361046, -0.07180415838956833},
            {0.027243362739682198, -0.07165134698152542, -0.04842827841639519},
            {-0.3945905566215515, -0.012050434947013855, 0.06687703728675842},
        },
        {
            {-0.19819103181362152, 0.2580799162387848, 0.5562178492546082},
            {-0.16525496542453766, -0.3077137768268585, 0.16808313131332397},
            {-0.5426476001739502, -0.5214812755584717, 0.06911216676235199},
        },
        {
            {0.310720294713974, 0.1810516119003296, -0.1807532161474228},
            {0.19367001950740814, 0.47835573554039, 0.1340457946062088},
            {0.051985226571559906, 0.5392634868621826, 0.40379488468170166},
        },
        {
            {0.026290278881788254, -0.2045232504606247, -0.2913563847541809},
            {-0.014070432633161545, 0.19773386418819427, -0.1699397712945938},
            {-0.2569137513637543, 0.10941511392593384, 0.12292326241731644},
        },
        {
            {-0.016968650743365288, 0.06749794632196426, -0.14948153495788574},
            {-0.01930842734873295, 0.1855643391609192, 0.20712552964687347},
            {-0.3933180272579193, -0.06300551444292068, 0.10311755537986755},
        },
        {
            {0.1625347137451172, -0.1329096555709839, 0.10799449682235718},
            {0.10327493399381638, -0.1710592657327652, -0.4425906240940094},
            {-0.019514430314302444, 0.17216593027114868, 0.10521630197763443},
        },
        {
            {-0.07695205509662628, -0.08123251050710678, -0.059306979179382324},
            {0.015237798914313316, 0.07553750276565552, -0.05548737570643425},
            {-0.06550462543964386, -0.04881734773516655, -0.05311306565999985},
        },
        {
            {-0.10254450887441635, 0.19261354207992554, 0.00551547110080719},
            {-0.21252043545246124, -0.043723247945308685, -0.01940094865858555},
            {-0.18890880048274994, -0.0817188024520874, -0.18193256855010986},
        },
        {
            {-0.05090898275375366, 0.021577106788754463, 0.09590505063533783},
            {-0.02173347771167755, -0.11686883121728897, 0.03422421216964722},
            {-0.36809784173965454, -0.05412404239177704, -0.09781253337860107},
        },
        {
            {0.1529695838689804, 0.031652435660362244, -0.2456895262002945},
            {0.06298108398914337, 0.14654530584812164, -0.06861476600170135},
            {-0.20212657749652863, 0.05618260055780411, 0.025773420929908752},
        },
        {
            {0.0005630035302601755, 0.08795542269945145, -0.2701144814491272},
            {-0.022383272647857666, 0.11977074295282364, -0.1495334655046463},
            {-0.23056422173976898, 0.06662486493587494, 0.021118294447660446},
        },
        {
            {0.043057993054389954, 0.10253255814313889, -0.13828516006469727},
            {-0.11637399345636368, 0.022236593067646027, -0.08322107791900635},
            {-0.1871366947889328, -0.028961114585399628, 0.007523266598582268},
        },
        {
            {-0.2625623345375061, -0.258272260427475, -0.013393496163189411},
            {-0.11000820249319077, -0.12532493472099304, 0.22731244564056396},
            {-0.13689450919628143, 0.04021719843149185, 0.41526299715042114},
        },
        {
            {-0.049916137009859085, 0.2890143394470215, -0.054824020713567734},
            {-0.6360392570495605, 0.15197443962097168, 0.3098335266113281},
            {-0.5843068361282349, -0.08752795308828354, 0.23805049061775208},
        },
    },
    {
        {
            {0.15355084836483002, 0.07558571547269821, 0.18067029118537903},
            {-0.09579188376665115, 0.011691692285239697, 0.005795442499220371},
            {-0.045756690204143524, -0.16804873943328857, -0.18820245563983917},
        },
        {
            {0.2444516271352768, 0.12964795529842377, -0.2882816791534424},
            {0.17112083733081818, -0.4045823812484741, -0.6533030271530151},
            {-0.04682324826717377, 0.05492866039276123, -0.284853458404541},
        },
        {
            {0.15002478659152985, 0.06623208522796631, -0.018437577411532402},
            {0.08660227060317993, 0.08244924247264862, -0.054054372012615204},
            {0.10201091319322586, 0.07609844207763672, -0.19784323871135712},
        },
        {
            {0.11476500332355499, 0.030262382701039314, -0.017054466530680656},
            {0.13619792461395264, -0.05427839979529381, 0.2371693104505539},
            {-0.05852992832660675, 0.03735373541712761, 0.09557972848415375},
        },
        {
            {-0.2116144597530365, -0.21589501202106476, -0.4949660003185272},
            {-0.17241010069847107, -0.24158574640750885, -0.35206273198127747},
            {-0.08005809038877487, -0.3752444386482239, -0.145093634724617},
        },
        {
            {-0.1601732224225998, -0.027838602662086487, 0.09224887192249298},
            {-0.13076001405715942, 0.034105315804481506, -0.08731703460216522},
            {0.25829175114631653, 0.05152871459722519, -0.023066053166985512},
        },
        {
            {0.18941070139408112, 0.047949712723493576, -0.0633336752653122},
            {0.1877545267343521, -0.02405012771487236, -0.14832623302936554},
            {-0.05789976567029953, -0.14595380425453186, -0.04942096397280693},
        },
        {
            {0.09523824602365494, 0.00832184124737978, 0.07766322791576385},
            {-0.10300301760435104, 0.15881283581256866, 0.031385473906993866},
            {0.12841559946537018, -0.02863411046564579, -0.3609094023704529},
        },
        {
            {-0.04361674189567566, 0.0502149872481823, -0.010123064741492271},
            {0.07652824372053146, -0.016808222979307175, -0.01358497142791748},
            {-0.012533645145595074, -0.05546312779188156, 0.056580156087875366},
        },
        {
            {0.10442084074020386, 0.053882915526628494, 0.07148060947656631},
            {-0.14161503314971924, -0.004739501979202032, -0.059245701879262924},
            {-0.3635627031326294, -0.19293396174907684, 0.06682774424552917},
        },
        {
            {0.23352158069610596, 0.14504462480545044, 0.10589515417814255},
            {0.11143922060728073, 0.11193244159221649, 0.027024228125810623},
            {-0.10420645028352737, -0.12337066978216171, 0.0034185126423835754},
        },
        {
            {-0.04137778654694557, 0.12662672996520996, 0.13571535050868988},
            {0.057317569851875305, -0.017901692539453506, -0.006175851449370384},
            {0.20628002285957336, -0.07011743634939194, 0.08697708696126938},
        },
        {
            {0.061415597796440125, 0.1400187611579895, 0.15927952527999878},
            {0.0670374259352684, 0.012612598016858101, -0.0005341931828297675},
            {-0.15212030708789825, -0.08434143662452698, 0.01015462912619114},
        },
        {
            {0.13297882676124573, -0.022421468049287796, 0.13792270421981812},
            {0.06813924014568329, -0.07773115485906601, -0.006523721385747194},
            {-0.12960104644298553, -0.06185756251215935, -0.06116756424307823},
        },
        {
            {-0.16793450713157654, -0.19421592354774475, -0.12243319302797318},
            {0.18990115821361542, -0.1628078818321228, -0.3665912449359894},
            {-0.14035628736019135, 0.03940460458397865, -0.13702966272830963},
        },
        {
            {0.3858673572540283, 0.11123742163181305, -0.07517649233341217},
            {0.16429755091667175, -0.3613055944442749, -0.3424173593521118},
            {-0.17323552072048187, -0.04094591736793518, -0.15477384626865387},
        },
    },
    {
        {
            {0.06344384700059891, -0.01911754347383976, 0.20940899848937988},
            {0.003984261304140091, 0.22982551157474518, -0.01275690458714962},
            {-0.05670544505119324, 0.03591763228178024, -0.13217997550964355},
        },
        {
