#ifndef MODEL_PARAMETERS_H
#define MODEL_PARAMETERS_H

#define CONV1_IN_CHANNELS 1
#define CONV1_OUT_CHANNELS 16
#define CONV1_KERNEL_SIZE 3
#define CONV1_STRIDE 1
#define CONV1_PADDING 1

static const float conv1_weights[CONV1_OUT_CHANNELS][CONV1_IN_CHANNELS][CONV1_KERNEL_SIZE][CONV1_KERNEL_SIZE] = {
    {
        {
            {-0.05820286273956299, -0.14873181283473969, -0.21534553170204163},
            {-0.11354438215494156, -0.13804037868976593, -0.04082455858588219},
            {0.07597671449184418, -0.11279625445604324, -0.029581114649772644},
        },
    },
    {
        {
            {0.5797472596168518, 0.28083816170692444, 0.5370679497718811},
            {-0.04362501949071884, 0.3717087209224701, 0.13566690683364868},
            {-0.07821731269359589, 0.3158913552761078, -0.04108043760061264},
        },
    },
    {
        {
            {-0.23171404004096985, -0.13373978435993195, -0.5095786452293396},
            {-0.19970518350601196, -0.14052946865558624, -0.5269750356674194},
            {-0.2148810178041458, 0.00848704855889082, 0.01577804423868656},
        },
    },
    {
        {
            {-0.0080460449680686, -0.17124904692173004, -0.511352002620697},
            {-0.20491759479045868, 0.11261936277151108, -0.4417816996574402},
            {-0.06703240424394608, -0.3604194223880768, 0.2175445854663849},
        },
    },
    {
        {
            {0.2360210418701172, -0.35915955901145935, 0.13154198229312897},
            {0.03201625496149063, -0.20667175948619843, -0.04138954356312752},
            {0.3678991496562958, 0.030985027551651, 0.21801654994487762},
        },
    },
    {
        {
            {-0.2478693276643753, -0.16385047137737274, -0.23743462562561035},
            {-0.3353239595890045, 0.07286762446165085, -0.055902689695358276},
            {0.06258980929851532, -0.1411031037569046, -0.09471234679222107},
        },
    },
    {
        {
            {0.23642294108867645, 0.08913759887218475, -0.18407849967479706},
            {0.07536334544420242, 0.17257459461688995, -0.22797910869121552},
            {0.3447781503200531, 0.11141728609800339, -0.32127222418785095},
        },
    },
    {
        {
            {-0.4460850656032562, -0.45998769998550415, 0.19038833677768707},
            {-0.3315425515174866, -0.34621450304985046, 0.15746471285820007},
            {-0.10868413001298904, 0.4780122935771942, 0.21561364829540253},
        },
    },
    {
        {
            {-0.848082423210144, -0.528285562992096, -0.08898638188838959},
            {-0.16492843627929688, 0.16266106069087982, 0.2509864866733551},
            {0.5410621166229248, 0.04614269360899925, 0.3004298806190491},
        },
    },
    {
        {
            {-0.027342259883880615, -0.01981208100914955, 0.3991186022758484},
            {-0.0975571945309639, 0.401820570230484, -0.298746794462204},
            {0.2399495393037796, 0.12970858812332153, -0.036329951137304306},
        },
    },
    {
        {
            {0.2131311148405075, 0.15248362720012665, -0.6751218438148499},
            {0.1453361213207245, -0.14453797042369843, 0.32070764899253845},
            {0.15639109909534454, 0.027573803439736366, 0.3276625871658325},
        },
    },
    {
        {
            {0.25213170051574707, 0.12511904537677765, 0.5590757727622986},
            {0.2399083524942398, -0.30138325691223145, 0.23647473752498627},
            {-0.41604915261268616, -0.3854747712612152, 0.20826734602451324},
        },
    },
    {
        {
            {0.19739466905593872, -0.0686846673488617, 0.3912530541419983},
            {-0.02385217696428299, -0.3087861239910126, 0.3997032046318054},
            {0.16720667481422424, 0.34990668296813965, 0.10984721034765244},
        },
    },
    {
        {
            {0.14672547578811646, -0.16671839356422424, 0.06891816854476929},
            {0.425263375043869, -0.4312593936920166, -0.268470823764801},
            {0.16281160712242126, 0.3429385721683502, 0.19367970526218414},
        },
    },
    {
        {
            {-0.1850459724664688, -0.01626126654446125, 0.5021210312843323},
            {-0.030802886933088303, -0.32012301683425903, 0.21749362349510193},
            {-0.24868305027484894, -0.26403552293777466, -0.09861358255147934},
        },
    },
    {
        {
            {0.0936356633901596, -0.35456785559654236, -0.5088849067687988},
            {0.25135165452957153, 0.25713396072387695, -0.10267450660467148},
            {0.24143920838832855, -0.0037657443899661303, 0.23580513894557953},
        },
    },
};

#define CONV2_IN_CHANNELS 16
#define CONV2_OUT_CHANNELS 32
#define CONV2_KERNEL_SIZE 3
#define CONV2_STRIDE 1
#define CONV2_PADDING 1

static const float conv2_weights[CONV2_OUT_CHANNELS][CONV2_IN_CHANNELS][CONV2_KERNEL_SIZE][CONV2_KERNEL_SIZE] = {
    {
        {
            {-0.06837841123342514, 0.020596792921423912, -0.04889631271362305},
            {-0.023995747789740562, 0.06681463122367859, 0.050801269710063934},
            {-0.04616644233465195, -0.06086354702711105, 0.00017369787383358926},
        },
        {
            {0.22221475839614868, -0.07767264544963837, 0.04288755729794502},
            {-0.03604600578546524, -0.05415061116218567, -0.04877466708421707},
            {-0.04130501672625542, -0.0404350683093071, 0.020710136741399765},
        },
        {
            {-0.0562359094619751, 0.017107665538787842, 0.07890067994594574},
            {0.00527547812089324, -0.07338353246450424, -0.04239889234304428},
            {0.06520786136388779, -0.042674433439970016, 0.07600520551204681},
        },
        {
            {-0.052631378173828125, 0.03489134833216667, -0.0357607901096344},
            {0.027940601110458374, 0.07531630992889404, 0.02575456164777279},
            {-0.022029420360922813, 0.01954755187034607, 0.07609998434782028},
        },
        {
            {-0.029513157904148102, 0.03618835657835007, 0.03487619012594223},
            {0.05444055423140526, 0.1573169082403183, -0.04327913373708725},
            {0.06099195405840874, 0.10653919726610184, 0.05273830518126488},
        },
        {
            {0.025386333465576172, 0.024310678243637085, -0.07238027453422546},
            {-0.050555817782878876, -0.07029896974563599, 0.04275887459516525},
            {-0.02241167426109314, 0.03911206126213074, 0.003023942466825247},
        },
        {
            {0.010100509971380234, -0.0026634575333446264, 0.026745399460196495},
            {-0.003569882595911622, 0.03383258730173111, 0.05437888205051422},
            {-0.1270647644996643, -0.03619259223341942, -0.10558193922042847},
        },
        {
            {0.11908533424139023, 0.20507828891277313, 0.11039289087057114},
            {0.03557920083403587, 0.08972451090812683, 0.08148687332868576},
            {-0.03722595050930977, -0.04241735488176346, -0.18758533895015717},
        },
        {
            {-0.04198622703552246, 0.1046225056052208, 0.04524136707186699},
            {-0.2796339690685272, 0.048599034547805786, 0.0858442634344101},
            {-0.15457455813884735, 0.12216674536466599, 0.14106647670269012},
        },
        {
            {0.2709990441799164, 0.027837030589580536, 0.04695701226592064},
            {0.09285128861665726, -0.015917809680104256, 0.07783065736293793},
            {-0.04389047622680664, 0.012287845835089684, 0.07132726162672043},
        },
        {
            {0.053087376058101654, -0.010248475708067417, 0.016557130962610245},
            {0.16436706483364105, 0.2225564420223236, -0.00858233030885458},
            {0.13471636176109314, 0.061973001807928085, 0.05261289328336716},
        },
        {
            {-0.17677170038223267, 0.0071702990680933, 0.037598103284835815},
            {-0.06300057470798492, 0.010138981975615025, -0.0860254243016243},
            {0.13848888874053955, 0.09060466289520264, 0.09225388616323471},
        },
        {
            {0.04787389189004898, 0.04595869779586792, -0.04028066620230675},
            {0.04925180971622467, 0.0452236607670784, -0.03610963001847267},
            {-0.019210297614336014, -0.027569599449634552, 0.08112350851297379},
        },
        {
            {-0.025538090616464615, -0.09703661501407623, 0.053517334163188934},
            {0.2268010824918747, 0.28212180733680725, -0.0008187059429474175},
            {0.40258505940437317, 0.11559034138917923, 0.03169386461377144},
        },
        {
            {-0.046179331839084625, 0.02839556150138378, 0.011141669005155563},
            {-0.03430268168449402, 0.10338374972343445, 0.12004038691520691},
            {0.022564848884940147, -0.10355385392904282, 0.16149336099624634},
        },
        {
            {-0.2749675214290619, -0.053483348339796066, 0.00268009421415627},
            {-0.044813089072704315, 0.13521163165569305, -0.11227750033140182},
            {0.1176353469491005, -0.030616724863648415, 0.04070093110203743},
        },
    },
    {
        {
            {0.006525139324367046, -0.04719270393252373, -0.01776943728327751},
            {0.04634673520922661, -0.08317931741476059, 0.038333963602781296},
            {-0.0322236642241478, -0.03899432346224785, 0.025576015934348106},
        },
        {
            {0.07355277985334396, -0.08646007627248764, -0.07622186839580536},
            {0.09027533233165741, 0.10816872864961624, -0.05705854669213295},
            {0.21730388700962067, 0.334594190120697, 0.1233987882733345},
        },
        {
            {-0.04665808007121086, -0.024010956287384033, 0.02555542252957821},
            {-0.02501600980758667, -0.07971081137657166, -0.0773109495639801},
            {0.020293882116675377, -0.01533109974116087, -0.07517929375171661},
        },
        {
            {0.04258965700864792, 0.0028959910850971937, 0.043593138456344604},
            {-0.07903017848730087, -0.008694052696228027, 0.08216933906078339},
            {-0.004298101179301739, -0.04862188547849655, -0.06745025515556335},
        },
        {
            {-0.08661726862192154, 0.007160486653447151, 0.14659513533115387},
            {0.04601975902915001, -0.16863761842250824, 0.024509189650416374},
            {-0.08537016063928604, -0.030840668827295303, 0.07496396452188492},
        },
        {
            {0.07619164884090424, 0.02539539337158203, -0.007290681358426809},
            {-0.010257750749588013, 0.07431972026824951, 0.025910556316375732},
            {0.022747617214918137, 0.06836926937103271, -0.08026327937841415},
        },
        {
            {-0.059393949806690216, -0.009736207313835621, 0.0036414607893675566},
            {-0.027548274025321007, -0.07157903164625168, 0.20393748581409454},
            {-0.17565186321735382, -0.2645813822746277, -0.052445314824581146},
        },
        {
            {0.06984855979681015, 0.16310949623584747, -0.1977490931749344},
            {-0.0425911583006382, -0.06583739817142487, -0.05696963518857956},
            {-0.02695707604289055, 0.028288904577493668, -0.03605961799621582},
        },
        {
            {-0.21023350954055786, 0.047947484999895096, -0.01426765788346529},
            {0.09158331900835037, 0.00982818566262722, -0.006087379064410925},
            {-0.29220202565193176, -0.21820923686027527, -0.4014601707458496},
        },
        {
            {0.0624985508620739, 0.06679906696081161, -0.23662278056144714},
            {0.005043331533670425, -0.1409328132867813, -0.1659528911113739},
            {-0.47061559557914734, -0.29147350788116455, 0.16865871846675873},
        },
        {
            {-0.12076034396886826, 0.18440820276737213, 0.22843730449676514},
            {0.04370824620127678, -0.11440936475992203, -0.2434690296649933},
            {-0.16635353863239288, -0.32268184423446655, -0.2045067697763443},
        },
        {
            {-0.1821722537279129, -0.1278030276298523, -0.18929734826087952},
            {0.1811961829662323, 0.09215156733989716, -0.005906493868678808},
            {0.2582598030567169, 0.24703559279441833, 0.13563287258148193},
        },
        {
            {-0.04410550743341446, 0.07432422041893005, 0.003998043946921825},
            {0.17260150611400604, 0.06615389138460159, 0.08268842101097107},
            {-0.1476612240076065, -0.08508244901895523, 0.0371471643447876},
        },
        {
            {-0.013161301612854004, -0.06993178278207779, 0.026326730847358704},
            {-0.09050340205430984, 0.12316006422042847, -0.16405950486660004},
            {-0.02377062477171421, -0.041442230343818665, -0.22937940061092377},
        },
        {
            {-0.006171258632093668, -0.0979294553399086, 0.039707500487565994},
            {-0.013252581469714642, -0.05620315298438072, 0.0769074335694313},
            {-0.007109711412340403, 0.045827653259038925, 0.004182491451501846},
        },
        {
            {0.016896354034543037, -0.14685505628585815, 0.07931401580572128},
            {-0.03570505231618881, -0.019838998094201088, -0.015109451487660408},
            {-0.028590304777026176, -0.05991169437766075, 0.06605745106935501},
        },
    },
    {
        {
            {0.021387796849012375, -0.047088902443647385, -0.05701233074069023},
            {0.07121633738279343, 0.06323673576116562, -0.07510726898908615},
            {-0.06979246437549591, 0.03085337206721306, 0.07442577183246613},
        },
        {
            {-0.017959367483854294, -0.19771166145801544, -0.3335800766944885},
            {-0.005867643281817436, -0.1304032802581787, -0.19836251437664032},
            {0.17000365257263184, 0.06616126000881195, 0.05630691349506378},
        },
        {
            {-0.017883092164993286, 0.06689834594726562, -0.045784205198287964},
            {0.07840051501989365, 0.0617067925632, -0.032003067433834076},
            {-0.050434403121471405, -0.028313111513853073, -0.054412346333265305},
        },
        {
            {0.07638810575008392, -0.02608945034444332, 0.04696512222290039},
            {0.05730592459440231, -0.04077458381652832, 0.019699683412909508},
            {0.00407642126083374, 0.03267668932676315, -0.07724983990192413},
        },
        {
            {0.058156415820121765, 0.007731551770120859, 0.04362054541707039},
            {0.06066793203353882, 0.13334423303604126, -0.027373911812901497},
            {0.06993328034877777, 0.09700054675340652, 0.005810799077153206},
        },
        {
            {-0.030029496178030968, 0.006533235311508179, -0.07960748672485352},
            {0.029878180474042892, -0.02160024642944336, 0.08010333776473999},
            {0.04855373501777649, -0.0665842592716217, -0.025004129856824875},
        },
        {
            {-0.011968887411057949, 0.06467827409505844, -0.20816682279109955},
            {0.006653275340795517, -0.050506941974163055, -0.14704599976539612},
            {-0.047257643193006516, 0.005960757378488779, 0.15972629189491272},
        },
        {
            {0.13386882841587067, -0.07434847205877304, 0.027891378849744797},
            {0.009073887020349503, 0.001008518971502781, -0.018537238240242004},
            {0.04464241489768028, -0.010133144445717335, 0.10102472454309464},
        },
        {
            {0.08403629064559937, -0.035019587725400925, 0.09031467884778976},
            {0.042563777416944504, 0.04455049708485603, -0.05004272982478142},
            {0.03642063960433006, -0.11863918602466583, 0.026896560564637184},
        },
        {
            {0.16277702152729034, 0.004155737813562155, -0.12986457347869873},
            {-0.03236114978790283, -0.11122079193592072, -0.2806535065174103},
            {-0.13273583352565765, -0.001569397165440023, -0.3599875271320343},
        },
        {
            {-0.09596377611160278, -0.08070649206638336, -0.005333374720066786},
            {0.2766290307044983, -0.05779079347848892, -0.01546628586947918},
            {0.18198375403881073, 0.10405845940113068, 0.26990291476249695},
        },
        {
            {-0.2708968222141266, -0.25277456641197205, -0.23555143177509308},
            {-0.16693679988384247, -0.14024285972118378, -0.1636888086795807},
            {0.17265503108501434, 0.06386389583349228, -0.006425880361348391},
        },
        {
            {-0.06285259872674942, -0.407373309135437, -0.2801346480846405},
            {0.0254650991410017, -0.021781977266073227, -0.24886205792427063},
            {0.058829065412282944, -0.047871753573417664, 0.09400975704193115},
        },
        {
            {0.04138913378119469, 0.015491817146539688, -0.13460271060466766},
            {0.3529842793941498, 0.24367226660251617, 0.03710649907588959},
            {-0.005862581543624401, 0.04294879734516144, 0.09535107761621475},
        },
        {
            {0.030905211344361305, 0.013074060901999474, -0.05231460928916931},
            {-0.037950240075588226, 0.1098812147974968, -0.12482086569070816},
            {0.2214871048927307, 0.035784050822257996, 0.0857987254858017},
        },
        {
            {-0.10483434796333313, -0.19911736249923706, 0.1330541968345642},
            {0.10317575931549072, 0.2501148283481598, -0.05187978595495224},
            {0.03320347145199776, -0.03051714412868023, -0.042585261166095734},
        },
    },
    {
        {
            {0.05686218664050102, -0.015587300062179565, -0.018406778573989868},
            {-0.014241914264857769, -0.039817214012145996, 0.042066723108291626},
            {-0.0168149471282959, -0.047759514302015305, -0.004533171653747559},
        },
        {
            {0.16785447299480438, 0.2221926897764206, -0.002159099094569683},
            {-0.1844039112329483, 0.045171190053224564, 0.01027657650411129},
            {0.1058819591999054, 0.09931012988090515, 0.0016407924704253674},
        },
        {
            {-0.00862680934369564, -0.0005002915859222412, -0.008693337440490723},
            {0.01577906869351864, 0.014898529276251793, -0.05846748873591423},
            {-0.0672299712896347, -0.05282717943191528, 0.03881748765707016},
        },
        {
            {0.06343294680118561, 0.006697555538266897, 0.00277063250541687},
            {0.015890371054410934, -0.008264134638011456, -0.014263997785747051},
            {0.03716036677360535, -0.0033123395405709743, -0.06983771920204163},
        },
        {
            {-0.13701139390468597, -0.1844939887523651, 5.9492387663340196e-05},
            {0.0928192287683487, -0.08489757031202316, 0.03424951806664467},
            {-0.017788955941796303, -0.052812136709690094, 0.042959120124578476},
        },
        {
            {-0.07765545696020126, -0.006009042263031006, -0.029553860425949097},
            {-0.0460132360458374, -0.028070788830518723, 0.04130815714597702},
            {-0.07456058263778687, -0.05530702322721481, -0.016106199473142624},
        },
        {
            {-0.035228580236434937, -0.07387994974851608, -0.07400231063365936},
            {-0.22136333584785461, -0.11499211937189102, 0.09451072663068771},
            {-0.08238273859024048, -0.0508464090526104, -0.0007092132582329214},
        },
        {
            {-0.010820546187460423, -0.27253642678260803, 0.025175925344228745},
            {-0.314937949180603, 0.03290363773703575, 0.07654905319213867},
            {0.05334314703941345, -0.15060468018054962, -0.17664571106433868},
        },
        {
            {-0.041134100407361984, -0.02227623015642166, -0.10112561285495758},
            {-0.12124379724264145, -0.10597550123929977, -0.2068565934896469},
            {0.021391524001955986, 0.08243774622678757, -0.04253510385751724},
        },
        {
            {0.15458285808563232, 0.026334062218666077, -0.0348224975168705},
            {-0.06664703041315079, -0.020831700414419174, -0.039390068501234055},
            {-0.09441899508237839, 0.08515559881925583, 0.10705126076936722},
        },
        {
            {0.020231233909726143, 0.12993460893630981, 0.2056436538696289},
            {0.15581487119197845, 0.024782301858067513, 0.13523349165916443},
            {-0.005926409270614386, -0.024696199223399162, 0.2198413461446762},
        },
        {
            {0.13645963370800018, 0.07306360453367233, -0.07604490220546722},
            {0.03189067542552948, 0.020803499966859818, -0.14211347699165344},
            {-0.06201278418302536, 0.11936956644058228, 0.20281490683555603},
        },
        {
            {0.1282730996608734, 0.05090280994772911, -0.009438141249120235},
            {-0.043182551860809326, 0.08109747618436813, 0.04674715921282768},
            {-0.06591843068599701, 0.13644734025001526, -0.04126095026731491},
        },
        {
            {0.18583424389362335, 0.2657507359981537, 0.3506890833377838},
            {0.42045438289642334, 0.12762635946273804, 0.2587498128414154},
            {0.02864670939743519, -0.11649459600448608, -0.07414154708385468},
        },
        {
            {0.06305888295173645, 0.084706611931324, -0.1534680277109146},
            {-0.02059229277074337, 0.0952480211853981, 0.05810471251606941},
            {-0.020989706739783287, 0.007453600876033306, -0.0006498760776594281},
        },
        {
            {0.06875520199537277, -0.0411190390586853, 0.06411976367235184},
            {-0.011952502653002739, 0.01849871128797531, -0.10099771618843079},
            {-0.2584751546382904, -0.20255924761295319, -0.014403201639652252},
        },
    },
    {
        {
            {-0.07208257168531418, -0.02247784659266472, -0.060140788555145264},
            {-0.01974726840853691, 0.0419064462184906, -0.02908959984779358},
            {-0.00772316288203001, -0.05394504591822624, 0.0795786902308464},
        },
        {
            {-0.03929935023188591, 0.19848932325839996, 0.143189936876297},
            {-0.08361055701971054, -0.10142535716295242, 0.040366217494010925},
            {-0.31251803040504456, -0.058557260781526566, 0.01968267187476158},
        },
        {
            {-0.06365720927715302, -0.03199285268783569, 0.07842355966567993},
            {0.00987272523343563, 0.08020500838756561, 0.05324605107307434},
            {0.07156994193792343, 0.04876752942800522, 0.06681008636951447},
        },
        {
            {-0.036186158657073975, -0.06740894913673401, 0.07664252817630768},
            {-0.07219034433364868, 0.059468578547239304, -0.05736937373876572},
            {0.050047289580106735, -0.015213092789053917, 0.07216497510671616},
        },
        {
            {-0.05621623247861862, 0.03566816821694374, -0.11845044791698456},
            {-0.11584620177745819, 0.04539641737937927, -0.0513189360499382},
            {-0.06961575895547867, -0.14695638418197632, 0.0055810934863984585},
        },
        {
            {0.06865213811397552, 0.000481168448459357, -0.04661044478416443},
            {0.058214299380779266, -0.044026076793670654, -0.0765625461935997},
            {0.05481275916099548, 0.0754452645778656, -0.046554915606975555},
        },
        {
            {-0.012750617228448391, -0.062903493642807, -0.04320239648222923},
            {-0.18078859150409698, -0.09172402322292328, -0.06972554326057434},
            {-0.09074115753173828, -0.3009382486343384, 0.02961059659719467},
        },
        {
            {-0.14155955612659454, -0.06662255525588989, -0.09723059087991714},
            {-0.15501128137111664, 0.014111628755927086, 0.10814637690782547},
            {-0.03987301141023636, 0.12591569125652313, -0.010714143514633179},
        },
        {
            {-0.09129650890827179, 0.12044156342744827, -0.15775537490844727},
            {0.09873899817466736, 0.16342279314994812, 0.01362844742834568},
            {0.02570820227265358, 0.14609161019325256, 0.19262807071208954},
        },
        {
            {-0.007423529401421547, 0.18280555307865143, -0.18645334243774414},
            {-0.11653762310743332, -0.013923965394496918, -0.07884524762630463},
            {-0.03535467013716698, 0.014646243304014206, 0.07994993776082993},
        },
        {
            {-0.1412242352962494, 0.03904878348112106, 0.1511593610048294},
            {-0.1641341745853424, 0.0018553980626165867, 0.029070576652884483},
            {-0.07405326515436172, 0.004296300932765007, -0.0049000089056789875},
        },
        {
            {0.06882710754871368, 0.08486288785934448, 0.05991273373365402},
            {-0.0708450898528099, 0.027719615027308464, 0.22869177162647247},
            {-0.20468199253082275, -0.33896711468696594, -0.16930611431598663},
        },
        {
            {0.11967778950929642, 0.045554421842098236, 0.08408203721046448},
            {-0.08804550021886826, 0.012992708012461662, 0.03267662972211838},
            {-0.03966416418552399, 0.08962354063987732, 0.14508792757987976},
        },
        {
            {0.06890442222356796, -0.14619529247283936, 0.09938095510005951},
            {0.011058684438467026, -0.23315513134002686, -0.17307355999946594},
            {-0.23527078330516815, -0.13246390223503113, -0.2256966233253479},
        },
        {
            {0.056251153349876404, 0.101593017578125, -0.047908831387758255},
            {0.12589451670646667, 0.05250001326203346, 0.10167646408081055},
            {-0.13653673231601715, -0.010790454223752022, -0.015950793400406837},
        },
        {
            {0.10882265120744705, -0.01008668728172779, -0.013370927423238754},
            {0.039750102907419205, 0.001834070193581283, 0.025079553946852684},
            {-0.01072373054921627, -0.10546711832284927, -0.18467268347740173},
        },
    },
    {
        {
            {0.07803725451231003, 0.009848485700786114, 0.047765374183654785},
            {-0.04444832727313042, 0.01913583278656006, 0.04842083901166916},
            {0.03494779393076897, -0.07752778381109238, -0.050234537571668625},
        },
        {
            {-0.2618868350982666, -0.17818905413150787, 0.31383976340293884},
            {-0.14078214764595032, -0.25648051500320435, 0.18974074721336365},
            {0.17621007561683655, 0.025354137644171715, -0.06843780726194382},
        },
        {
            {-0.028738370165228844, -0.06849735230207443, -0.055033259093761444},
            {0.0037505924701690674, -0.05092151090502739, 0.02929660677909851},
            {0.04509156942367554, -0.07629712671041489, -0.04796816036105156},
        },
        {
            {-0.07746754586696625, -0.04456603527069092, 0.06565051525831223},
            {-0.020691385492682457, -0.01189400814473629, -0.025362800806760788},
            {0.05574076622724533, 0.0557980053126812, 0.07510663568973541},
        },
        {
            {0.06929532438516617, -0.006902339868247509, -0.005545193795114756},
            {-0.044134777039289474, 0.01728011667728424, 0.04019750654697418},
            {0.10439737886190414, 0.15364980697631836, -0.04538744315505028},
        },
        {
            {0.025738587602972984, 0.008246243000030518, -0.061429016292095184},
            {0.02063242718577385, 0.041259199380874634, -0.06989175081253052},
            {-0.07831063121557236, -0.07545731961727142, -0.044255875051021576},
        },
        {
            {-0.38836669921875, -0.157161146402359, -0.2761206328868866},
            {-0.1424957513809204, -0.06182079389691353, -0.11659085750579834},
            {-0.09803994745016098, -0.05626876652240753, -0.0011511857155710459},
        },
        {
            {0.04590332880616188, 0.014710422605276108, 0.0352138914167881},
            {-0.0934135764837265, -0.12051134556531906, -0.1689804494380951},
            {-0.034486498683691025, 0.018299605697393417, 0.009756381623446941},
        },
        {
            {0.16090184450149536, -0.16362231969833374, 0.10970715433359146},
            {0.15891322493553162, -0.16879162192344666, -0.3493331968784332},
            {-0.006456705275923014, -0.05339013785123825, -0.10748493671417236},
        },
        {
            {-0.16004082560539246, -0.21778351068496704, 0.04843573272228241},
            {0.06432436406612396, -0.15421204268932343, -0.2967800498008728},
            {-0.2239696979522705, -0.20184174180030823, -0.25546136498451233},
        },
        {
            {-0.0502203032374382, -0.22176441550254822, -0.17179922759532928},
            {-0.04884479194879532, -0.2296062409877777, 0.011747549287974834},
            {0.17402982711791992, 0.22484558820724487, 0.06335421651601791},
        },
        {
            {0.05908595025539398, 0.03817478567361832, 0.11791602522134781},
            {-0.14376817643642426, -0.031165271997451782, 0.23910707235336304},
            {0.12076552212238312, 0.06673329323530197, -0.08299398422241211},
        },
        {
            {-0.2127581536769867, -0.06424739956855774, 0.21544292569160461},
            {-0.18361373245716095, -0.04863458871841431, 0.1227821484208107},
            {0.04088498279452324, 0.009505150839686394, -0.4052681624889374},
        },
        {
            {-0.0540156327188015, -0.1287282407283783, -0.20050354301929474},
            {0.016085874289274216, 0.2912464439868927, 0.08279504626989365},
            {0.2312850058078766, 0.3386939764022827, 0.3821396827697754},
        },
        {
            {0.07398853451013565, 0.02069886215031147, 0.22426925599575043},
            {0.044979337602853775, -0.03348580375313759, 0.03824959322810173},
            {-0.053737618029117584, 0.052727941423654556, -0.10821068286895752},
        },
        {
            {-0.10251391679048538, 0.03846610337495804, -0.13851997256278992},
            {0.14548616111278534, 0.13769306242465973, -0.02621975541114807},
            {-0.03215258568525314, 0.2476712018251419, 0.1755426824092865},
        },
    },
    {
        {
            {-0.07580640912055969, 0.05860927700996399, 0.02739616297185421},
            {0.02664962410926819, -0.014433791860938072, 0.07284985482692719},
            {0.05119487643241882, -0.06007375568151474, -0.06879361718893051},
        },
        {
            {-0.005582769867032766, 0.011722834780812263, -0.25425809621810913},
            {0.13337630033493042, 0.08879313617944717, 0.01037128921598196},
            {-0.03036392666399479, 0.12330775707960129, 0.34804871678352356},
        },
        {
            {0.07315840572118759, -0.012499561533331871, 0.021238040179014206},
            {-0.057056866586208344, -0.04011092707514763, 0.023589542135596275},
            {-0.03174344822764397, 0.01633356139063835, -0.0486457459628582},
        },
        {
            {-0.048579297959804535, -0.031178098171949387, -0.04273664206266403},
            {0.06507500261068344, 0.03456970304250717, 0.060307543724775314},
            {-0.07495386898517609, 0.0354662649333477, -0.05984862893819809},
        },
        {
            {-0.07536149024963379, 0.11937566101551056, -0.00960527453571558},
            {0.09745099395513535, -0.05033830925822258, 0.023972056806087494},
            {0.10451363027095795, -0.0530419759452343, -0.003087240271270275},
        },
        {
            {0.07951623201370239, 0.044481873512268066, -0.047259777784347534},
            {0.023491989821195602, -0.07272902131080627, -0.04697123169898987},
            {0.049737244844436646, -0.025334279984235764, -0.035310447216033936},
        },
        {
            {-0.0487266406416893, 0.008793127723038197, -0.22245322167873383},
            {-0.08661232143640518, -0.10060015320777893, -0.18908481299877167},
            {-0.05510126054286957, -0.03927226364612579, -0.011563065461814404},
        },
        {
            {-0.09480249881744385, -0.1290374994277954, -0.04084610566496849},
            {-0.027370983734726906, -0.0419643297791481, -0.24708664417266846},
            {-0.05960657820105553, 0.043742574751377106, -0.3505092263221741},
        },
        {
            {-0.08699258416891098, -0.024114077910780907, -0.08538766205310822},
            {0.08059549331665039, 0.05941354110836983, -0.02478598803281784},
            {-0.10623679310083389, -0.1331443041563034, -0.08433974534273148},
        },
        {
            {0.06434737890958786, 0.13434351980686188, -0.04744535684585571},
            {-0.0931197851896286, -0.011832515709102154, -0.06121816486120224},
            {-0.014950187876820564, -0.10983242839574814, -0.13522180914878845},
        },
        {
            {-0.07507938146591187, -0.09636253118515015, -0.13849219679832458},
            {0.12290060520172119, 0.2965962290763855, 0.05635865405201912},
            {0.07843396067619324, 0.10571581870317459, 0.15144704282283783},
        },
        {
            {-0.10003983229398727, -0.19803190231323242, 0.00929667055606842},
            {0.004941646941006184, 0.15027418732643127, -0.10513048619031906},
            {0.0439634844660759, 0.1640186458826065, 0.007836307398974895},
        },
        {
            {0.055866580456495285, -0.10202211886644363, -0.32740548253059387},
            {0.12040793895721436, -0.07922501116991043, -0.13760340213775635},
            {-0.11550713330507278, 0.020298970863223076, 0.10422375798225403},
        },
        {
            {0.06437909603118896, 0.13678587973117828, -0.006037028506398201},
            {0.03623820096254349, 0.22518040239810944, 0.36891037225723267},
            {-0.2139664888381958, 0.06793242692947388, 0.09982920438051224},
        },
        {
            {-0.11944971233606339, 0.025141095742583275, -0.0981055349111557},
            {0.02590891718864441, -0.011628245934844017, -0.08408614248037338},
            {0.016651662066578865, 0.005207358859479427, 0.06006919965147972},
        },
        {
            {-0.053989168256521225, 0.14895911514759064, 0.0468701496720314},
            {0.011516494676470757, 0.07886119931936264, 0.17258358001708984},
            {-0.055518727749586105, 0.12799498438835144, -0.00532365869730711},
        },
    },
    {
        {
            {-0.02038358710706234, -0.04464637488126755, -0.07312501966953278},
            {0.0548148974776268, 0.057779282331466675, -0.07935838401317596},
            {0.05121685191988945, -0.08137662708759308, 0.033453285694122314},
        },
        {
            {-0.142202690243721, -0.1089988723397255, 0.0699654370546341},
            {-0.11694179475307465, 0.014561982825398445, 0.07832105457782745},
            {0.1413591504096985, 0.07040348649024963, -0.12338045984506607},
        },
        {
            {0.06247870251536369, -0.04787126183509827, 0.009542773477733135},
            {-0.07674288004636765, -0.030524086207151413, -0.07726822793483734},
            {-0.058939069509506226, -0.026159724220633507, -0.05542989820241928},
        },
        {
            {0.07175927609205246, 0.0591881200671196, 0.03758895397186279},
            {-0.02560359239578247, 0.07364626973867416, 0.013306419365108013},
            {-0.050071053206920624, 0.023812711238861084, 0.05756240338087082},
        },
        {
            {-0.0954495295882225, 0.12341675907373428, -0.06623908877372742},
            {0.0423671118915081, 0.043458241969347, 0.057472288608551025},
            {0.037294138222932816, -0.050916749984025955, -0.06425096839666367},
        },
        {
            {-0.009525468572974205, -0.07855017483234406, -0.043374232947826385},
            {-0.0739654153585434, -0.0441756471991539, 0.0782107263803482},
            {0.05156908556818962, -0.06929495930671692, -0.037391744554042816},
        },
        {
            {-0.10483755171298981, -0.03719571605324745, -0.0351533442735672},
            {-0.04500651732087135, -0.12086527049541473, 0.02881760522723198},
            {0.034361012279987335, -0.07468385994434357, -0.0919404849410057},
        },
        {
            {-0.18852318823337555, -0.06525426357984543, 0.13519048690795898},
            {-0.0041199023835361, 0.05735108628869057, -0.05825980752706528},
            {-0.13372312486171722, 0.04595789685845375, 0.059327855706214905},
        },
        {
            {-0.06445968151092529, 0.15442410111427307, 0.22878198325634003},
            {0.15932728350162506, 0.2784684896469116, -0.04864853620529175},
            {-0.00465967133641243, -0.1779671311378479, 0.09074622392654419},
        },
        {
            {0.032409071922302246, -0.08359639346599579, -0.10590250045061111},
            {-0.10794972628355026, 0.18346767127513885, 0.2172200083732605},
            {0.223215252161026, 0.012682587839663029, 0.07055389136075974},
        },
        {
            {0.18266454339027405, 0.27477723360061646, 0.010278305038809776},
            {0.2540249228477478, -0.09993041306734085, -0.4258688986301422},
            {-0.03533804416656494, -0.11150072515010834, 0.04921342805027962},
        },
        {
            {0.11423178017139435, 0.003840073710307479, -0.088394895195961},
            {-0.0950031653046608, -0.15737643837928772, 0.04013926535844803},
            {0.09389102458953857, 0.19614294171333313, 0.06540551036596298},
        },
        {
            {-0.11634581536054611, 0.1617950052022934, 0.11957094818353653},
            {0.2235901951789856, 0.11580806970596313, 0.06748539954423904},
            {-0.05039536580443382, -0.10011176019906998, -0.18513734638690948},
        },
        {
            {0.062020257115364075, -0.17493799328804016, -0.1589895337820053},
            {0.009478895924985409, -0.2906506657600403, -0.08496282994747162},
            {0.059560589492321014, 0.20832563936710358, 0.10235124826431274},
        },
        {
            {0.1849043071269989, 0.09521827846765518, -0.01459142379462719},
            {0.03297843411564827, 0.11371532082557678, 0.07227103412151337},
            {0.15093325078487396, 0.0002974843664560467, -0.06942721456289291},
        },
        {
            {0.06032580882310867, 0.07066185772418976, -0.03586579114198685},
            {-0.012492937035858631, -0.22509551048278809, -0.16793936491012573},
            {-0.0662618950009346, -0.07832244783639908, -0.1090107336640358},
        },
    },
    {
        {
            {-0.048865001648664474, -0.05131072923541069, -0.07842633128166199},
            {-0.06272896379232407, -0.07731222361326218, 0.04572204872965813},
            {0.0490935854613781, 0.01874660514295101, -0.07092241942882538},
        },
        {
            {-0.28921571373939514, -0.3811970353126526, -0.15556815266609192},
            {0.049820031970739365, 0.012142300605773926, -0.22832147777080536},
            {0.25650960206985474, 0.32903942465782166, 0.16188031435012817},
        },
        {
            {-0.07156603783369064, -0.025474589318037033, 0.07773667573928833},
            {0.07443362474441528, -0.055010657757520676, 0.03706951066851616},
            {0.03145087882876396, -0.05535399168729782, 0.022946735844016075},
        },
        {
            {0.047486912459135056, -0.0294185783714056, -0.0421518012881279},
            {-0.06870865076780319, 0.017555465921759605, -0.010259479284286499},
            {-0.02072947286069393, -0.04718484729528427, -0.05999334901571274},
        },
        {
            {0.04176649823784828, 0.03437046706676483, 0.006987783592194319},
            {-0.0018214512383565307, 0.12594538927078247, -0.049846991896629333},
            {0.0442766398191452, 0.022781265899538994, 0.1557493805885315},
        },
        {
            {-0.0817883312702179, 0.023585032671689987, 0.00831411313265562},
            {0.059528231620788574, 0.06154990196228027, 0.05120682716369629},
            {0.08111396431922913, 0.042936772108078, -0.07543905079364777},
        },
        {
            {-0.21845529973506927, -0.17038418352603912, -0.2135176956653595},
            {-0.08195401728153229, 0.07039504498243332, -0.022554932162165642},
            {0.004251060076057911, -0.03777748718857765, -0.1190023273229599},
        },
        {
            {-0.18297763168811798, -0.0995832160115242, -0.16787901520729065},
            {-0.0649762898683548, -0.0007301681325770915, -0.012038888409733772},
            {-0.06329439580440521, -0.1818339079618454, -0.09254379570484161},
        },
        {
            {0.13268530368804932, 0.10307363420724869, -0.11603379249572754},
            {0.3091714680194855, -0.06178969144821167, 0.06634385883808136},
            {0.10992640256881714, -0.03346744179725647, 0.1350155472755432},
        },
        {
            {-0.2519738972187042, -0.3650217354297638, -0.39423996210098267},
            {-0.08140608668327332, -0.0519767627120018, -0.3416588306427002},
            {0.10312243551015854, -0.056965507566928864, -0.24151070415973663},
        },
        {
            {-0.1216556578874588, -0.025981537997722626, -0.2667098045349121},
            {-0.032997336238622665, -0.011303444392979145, 0.02939562499523163},
            {-0.11245092749595642, -0.07300063222646713, 0.25351786613464355},
        },
        {
            {-0.21708865463733673, 0.04509405791759491, 0.19028963148593903},
            {-0.14429056644439697, 0.04728695750236511, -0.2053394466638565},
            {0.012603993527591228, 0.09759145230054855, 0.17593228816986084},
        },
        {
            {-0.26810765266418457, -0.45173150300979614, -0.25496307015419006},
            {-0.06671229004859924, -0.0336567647755146, -0.3752361834049225},
            {0.18703027069568634, 0.03668253496289253, 0.15536731481552124},
        },
        {
            {-0.440066933631897, -0.006135467905551195, 0.017064886167645454},
            {-0.4127320349216461, -0.09924688935279846, 0.14852997660636902},
            {0.013621981255710125, -0.04172973707318306, -0.006521292496472597},
        },
        {
            {-0.028171703219413757, -0.03431622311472893, 0.11037158221006393},
            {0.039864663034677505, -0.001666257274337113, 0.0880063995718956},
            {0.16211912035942078, -0.03326135501265526, 0.0667821541428566},
        },
        {
            {-0.08753605931997299, 0.14351345598697662, -0.048796530812978745},
            {-0.23647741973400116, 0.0595858208835125, 0.1604090929031372},
            {-0.10706572979688644, -0.11576750129461288, 0.11312688142061234},
        },
    },
    {
        {
            {0.06567679345607758, 0.05956736207008362, -0.0014219980221241713},
            {0.05956670641899109, 0.06542714685201645, 0.018637072294950485},
            {-0.009256869554519653, 0.04510931298136711, 0.028116505593061447},
        },
        {
            {0.11246910691261292, -0.11725332587957382, -0.12774181365966797},
            {-0.12542256712913513, -0.2301141321659088, -0.38195979595184326},
            {-0.12445809692144394, 0.06386208534240723, -0.023714564740657806},
        },
        {
            {-0.013371944427490234, 0.04160655662417412, 0.07327468693256378},
            {0.06218782067298889, -0.01163758896291256, -0.01751735806465149},
            {0.006035487167537212, 0.06496407091617584, -0.007904818281531334},
        },
        {
            {-0.04508693143725395, -0.035746604204177856, 0.021475225687026978},
            {0.024761786684393883, -0.06804046034812927, 0.07784082740545273},
            {0.028596332296729088, 0.06093428656458855, 0.06285112351179123},
        },
        {
            {0.0372924879193306, 0.06148723512887955, 0.02018352411687374},
            {-0.12932249903678894, -0.06405071169137955, 0.01824413612484932},
            {0.17202208936214447, 0.02816714532673359, 0.0514657162129879},
        },
        {
            {-0.05023986101150513, 0.015423944219946861, 0.06082116812467575},
            {0.0438959114253521, 0.06000810116529465, -0.05209718272089958},
            {0.007055014371871948, 0.05362312123179436, 0.07730571925640106},
        },
        {
            {0.005156340543180704, -0.0049219331704080105, -0.04964379221200943},
            {-0.15671586990356445, -0.17759589850902557, -0.2638891935348511},
            {-0.23341725766658783, -0.15598419308662415, -0.027690036222338676},
        },
        {
            {0.19549302756786346, -0.17817901074886322, 0.05397115647792816},
            {-0.001394552760757506, -0.019338559359312057, -0.0992467924952507},
            {0.000468951155198738, -0.04935849830508232, -0.002303658053278923},
        },
        {
            {-0.005722318310290575, -0.1558188498020172, 0.012895648367702961},
            {0.2058899998664856, 0.15940995514392853, 0.1709502786397934},
            {0.3559875190258026, 0.2289101928472519, 0.033599480986595154},
        },
        {
            {0.14174990355968475, 0.06943563371896744, 0.08889904618263245},
            {0.16522884368896484, -0.09155279397964478, -0.14279532432556152},
            {0.057015154510736465, 0.08873912692070007, -0.11340726166963577},
        },
        {
            {-0.00497238477692008, -0.1928340643644333, -0.3000340163707733},
            {-0.12543508410453796, 0.04532585293054581, -0.05139810964465141},
            {0.19296056032180786, 0.16633933782577515, 0.08383243530988693},
        },
        {
            {0.11917383968830109, -0.02495873160660267, -0.2642664313316345},
            {-0.12751396000385284, -0.08519531786441803, -0.004536143504083157},
            {0.1544061005115509, 0.1592046320438385, 0.08649805933237076},
        },
        {
            {-0.018594998866319656, -0.0867832824587822, -0.27181175351142883},
            {-0.2713926136493683, -0.2982429563999176, -0.222646102309227},
            {-0.01713281124830246, -0.0860271155834198, -0.08795914798974991},
        },
        {
            {-0.09933292865753174, -0.24313849210739136, -0.29925402998924255},
            {0.09185624122619629, -0.20370572805404663, -0.10128692537546158},
            {-0.024189038202166557, 0.0874839723110199, 0.07742160558700562},
        },
        {
            {-0.03373909369111061, 0.06444636732339859, 0.019480999559164047},
            {0.08331283181905746, -0.08842136710882187, 0.022064991295337677},
            {0.16215789318084717, 0.04831645265221596, 0.050576724112033844},
        },
        {
            {-0.0181072149425745, -0.07020104676485062, -0.03584500774741173},
            {-0.03216363117098808, -0.020715875551104546, -0.03174297511577606},
            {0.13211528956890106, 0.027076493948698044, 0.11757173389196396},
        },
    },
    {
        {
            {0.07636767625808716, -0.024115007370710373, -0.07252973318099976},
            {-0.0643346831202507, 0.07710760831832886, 0.06383004784584045},
            {0.01563715934753418, 0.06431993097066879, -0.06827234476804733},
        },
        {
            {0.060957372188568115, 0.05390937998890877, 0.12961725890636444},
            {0.10448887944221497, -0.005563518963754177, -0.007831751368939877},
            {-0.019997699186205864, -0.0438823364675045, -0.24627293646335602},
        },
        {
            {0.02274479530751705, 0.013111650943756104, 0.06901314109563828},
            {-0.03886870667338371, 0.07464958727359772, -0.06628101319074631},
            {0.0013354619732126594, 0.024221908301115036, 0.024895211681723595},
        },
        {
            {-0.009321948513388634, -0.016293903812766075, 0.0358116552233696},
            {0.028528481721878052, -0.02065548300743103, 0.02790903113782406},
            {0.018573325127363205, 0.03603040426969528, -0.04281951114535332},
        },
        {
            {-0.011471408419311047, 0.06024390831589699, 0.017626440152525902},
            {-0.03584197163581848, 0.014022787101566792, 0.03752506151795387},
            {-0.07052235305309296, 0.04465707391500473, 0.06481162458658218},
        },
        {
            {-0.08079557865858078, 0.0034439663868397474, 0.061933934688568115},
            {-0.010244280099868774, 0.060449592769145966, 0.0541866235435009},
            {-0.03881021589040756, -0.06403416395187378, -0.03312288969755173},
        },
        {
            {0.06265683472156525, -7.034390728222206e-05, -0.05036071315407753},
            {-0.01373758539557457, 0.09150543063879013, -0.25395718216896057},
            {0.14947208762168884, 0.0771520808339119, -0.10848995298147202},
        },
        {
            {0.016654683277010918, 0.18227604031562805, 0.05808712914586067},
            {0.10333897918462753, 0.031744346022605896, -0.10687770694494247},
            {-0.11019223928451538, -0.00437009846791625, -0.13751022517681122},
        },
        {
            {0.05165586620569229, 0.024991530925035477, 0.23476718366146088},
            {-0.08264167606830597, -0.06511865556240082, 0.20474115014076233},
            {-0.20274540781974792, -0.0474032387137413, 0.015733255073428154},
        },
        {
            {0.1293373554944992, 0.13375166058540344, 0.068205326795578},
            {0.21206754446029663, 0.13906563818454742, -0.07606275379657745},
            {0.06140304356813431, -0.18655440211296082, -0.22300098836421967},
        },
        {
            {-0.09972064197063446, 0.2101527750492096, -0.13382631540298462},
            {-0.06811802089214325, -0.0354427807033062, -0.25772008299827576},
            {0.186606302857399, 0.22252438962459564, 0.021215064451098442},
        },
        {
            {-0.21512910723686218, -0.12422095239162445, 0.15536725521087646},
            {-0.13934239745140076, 0.04194456338882446, 0.05395660921931267},
            {-0.02819487452507019, -0.007948514074087143, -0.0999368205666542},
        },
        {
            {0.09960171580314636, -0.013873123563826084, 0.0625448226928711},
            {0.13849136233329773, -0.03424423560500145, -0.2595430016517639},
            {0.09142806380987167, -0.05734831467270851, -0.19248299300670624},
        },
        {
            {0.03686670958995819, -0.017631767317652702, -0.025112943723797798},
            {-0.04952908679842949, -0.06598807871341705, -0.058353178203105927},
            {0.20083080232143402, 0.25501593947410583, -0.004357435274869204},
        },
        {
            {-0.06489337980747223, -0.07070890069007874, 0.058307748287916183},
            {0.00028861514874733984, -0.010001235641539097, 0.008765403181314468},
            {-0.003436044557020068, 0.051149822771549225, -0.12266895920038223},
        },
        {
            {-0.22555293142795563, 0.05998658761382103, -0.051250435411930084},
            {-0.18606838583946228, -0.0950758084654808, -0.1005886048078537},
            {-0.07689199596643448, 0.12434140592813492, 0.1356351673603058},
        },
    },
    {
        {
            {0.038933634757995605, 0.022542884573340416, -0.015855371952056885},
            {0.07262229919433594, 0.04188823699951172, -0.06924562156200409},
            {-0.04613642022013664, 0.050252221524715424, 0.04054925963282585},
        },
        {
            {-0.1487775444984436, 0.130438894033432, 0.12363114207983017},
            {0.09431209415197372, 0.06259697675704956, -0.007934116758406162},
            {0.0745796412229538, -0.01948469877243042, -0.037079282104969025},
        },
        {
            {0.02676471136510372, -0.04955834150314331, -0.06423455476760864},
            {0.0502399206161499, 0.03845301270484924, -0.05370163172483444},
            {0.02714136242866516, 0.0670226663351059, -0.043209463357925415},
        },
        {
            {-0.006154914852231741, -0.06163112446665764, 0.023788154125213623},
            {-0.07077624648809433, -0.03668548911809921, -0.06349806487560272},
            {-0.0831606313586235, 0.03718775510787964, 0.017466029152274132},
        },
        {
            {0.020955165848135948, -0.07711049914360046, -0.14146636426448822},
            {0.024575302377343178, 0.005355882458388805, -0.06901311129331589},
            {-0.13274486362934113, -0.062131643295288086, 0.08456847816705704},
        },
        {
            {0.01354052685201168, -0.046957045793533325, -0.006239771842956543},
            {0.05618588253855705, 0.055306416004896164, -0.06157325953245163},
            {-0.06122080609202385, -0.021369269117712975, 0.00023769339895807207},
        },
        {
            {-0.13556461036205292, -0.03664957731962204, 0.06945206969976425},
            {0.11432675272226334, -0.1935478001832962, 0.026907391846179962},
            {-0.03463350981473923, 0.06422671675682068, -0.08592238277196884},
        },
        {
            {-0.010962988249957561, 0.10333556681871414, 0.13937707245349884},
            {0.04349132627248764, 0.07318737357854843, -0.08329682797193527},
            {-0.08700018376111984, -0.11782965809106827, 0.028282593935728073},
        },
        {
            {0.15564200282096863, 0.1229749545454979, 0.04796130582690239},
            {0.08739447593688965, -0.03364931792020798, -0.21728232502937317},
            {-0.11763117462396622, -0.1147080659866333, -0.09139209240674973},
        },
        {
            {0.11914943903684616, 0.16156411170959473, 0.11059042066335678},
            {0.2595677673816681, 0.17208576202392578, 0.22908447682857513},
            {0.060107436031103134, 0.0628097653388977, -0.18644213676452637},
        },
        {
            {-0.04373214766383171, -0.01715029403567314, 0.04800816625356674},
            {-0.04394061118364334, -0.1500774323940277, -0.02325945720076561},
            {-0.05866468325257301, 0.034834835678339005, 0.15706771612167358},
        },
        {
            {0.09349773079156876, -0.12456481903791428, -0.04450959712266922},
            {-0.2732645273208618, -0.1026642844080925, -0.016554495319724083},
            {-0.045053545385599136, 0.17991451919078827, 0.15047729015350342},
        },
        {
            {-0.17112188041210175, 0.20268087089061737, 0.15890920162200928},
            {0.05259378254413605, 0.0767902359366417, -0.035265740007162094},
            {0.11797293275594711, 0.0905146673321724, 0.02673795260488987},
        },
        {
            {-0.09642745554447174, -0.009953529573976994, -0.05895887687802315},
            {-0.20824596285820007, -0.0754101499915123, 0.0768832415342331},
            {0.20457807183265686, 0.1517423540353775, 0.24260570108890533},
        },
        {
            {-0.01319523062556982, -0.06246379017829895, 0.053024109452962875},
            {-0.08980495482683182, -0.1032412201166153, 0.09810025244951248},
            {0.02987908013164997, -0.019569221884012222, 0.028723398223519325},
        },
        {
            {-0.022539176046848297, -0.04125430807471275, -0.05580376461148262},
            {-0.2710026800632477, -0.18175972998142242, -0.13624340295791626},
            {-0.21710707247257233, 0.06146445497870445, 0.009329922497272491},
        },
    },
    {
        {
            {-0.009394645690917969, -0.002721647499129176, 0.04420757293701172},
            {-0.053564757108688354, 0.05267364904284477, -0.07464274019002914},
            {0.04053148627281189, 0.07206382602453232, 0.07891839742660522},
        },
        {
            {0.27288511395454407, 0.2952744662761688, 0.07232606410980225},
            {0.3848429024219513, 0.3388898968696594, 0.025446368381381035},
            {0.07348989695310593, 0.029329100623726845, -0.001169903902336955},
        },
        {
            {-0.012085586786270142, -0.0633101686835289, -0.05751984566450119},
            {-0.0735158920288086, 0.05583404749631882, -0.052011869847774506},
            {0.0008626282215118408, 0.0004744629259221256, 0.028485935181379318},
        },
        {
            {-0.005383163690567017, 0.08163577318191528, 0.04206693172454834},
            {0.0038541555404663086, -0.030447375029325485, 0.07858438789844513},
            {-0.07004408538341522, -0.02414172887802124, 0.041707299649715424},
        },
        {
            {0.09640483558177948, 0.018671710044145584, 0.07740885764360428},
            {-0.11639409512281418, 0.03076009824872017, 0.012540638446807861},
            {-0.07208648324012756, -0.039279717952013016, 0.00299729872494936},
        },
        {
            {-0.015339265577495098, -0.04456740617752075, -0.0007852713461034},
            {0.08156187832355499, -0.038875799626111984, 0.04934613034129143},
            {-0.055525701493024826, -0.027906149625778198, -0.06863167136907578},
        },
        {
            {-0.22495025396347046, 0.0968502014875412, 0.1201476976275444},
            {0.0008710449328646064, -0.16165012121200562, -0.02781509794294834},
            {-0.20160110294818878, -0.21987709403038025, 0.07908380031585693},
        },
        {
            {0.12351764738559723, 0.01675371639430523, 0.05560996010899544},
            {-0.17575369775295258, -0.21406753361225128, 0.0952998623251915},
            {-0.016803262755274773, 0.042701344937086105, -0.07471133768558502},
        },
        {
            {0.1633198857307434, 0.24178481101989746, -0.14619041979312897},
            {0.16306746006011963, -0.04755092412233353, 0.023906977847218513},
            {-0.06894291937351227, -0.2431216537952423, 0.03069719672203064},
        },
        {
            {-0.008877691812813282, 0.21531328558921814, 0.05378624424338341},
            {0.21145343780517578, -0.07923740893602371, -0.14153195917606354},
            {-0.03258685767650604, 0.06944604218006134, -0.06475751847028732},
        },
        {
            {0.0247621089220047, 0.1838293969631195, 0.07170475274324417},
            {-0.06427721679210663, -0.16994038224220276, 0.05410970747470856},
            {0.015176244080066681, -0.09025408327579498, 0.05719481036067009},
        },
        {
            {0.13014709949493408, 0.025653859600424767, 0.0928489938378334},
            {0.4851433336734772, 0.20681677758693695, -0.029669826850295067},
            {-0.029555076733231544, 0.09466570615768433, -0.08224626630544662},
        },
        {
            {0.04911862313747406, 0.22774100303649902, -0.07708793133497238},
            {0.18291178345680237, -0.08876828849315643, -0.08354692906141281},
            {-0.0588628351688385, -0.12617401778697968, -0.14563044905662537},
        },
        {
            {-0.2046029418706894, -0.18737635016441345, -0.025438550859689713},
            {0.01627502590417862, -0.16053509712219238, 0.060320619493722916},
            {-0.18661953508853912, -0.0868365690112114, 0.1357937753200531},
        },
        {
            {-0.12981067597866058, -0.009378996677696705, -0.009972264990210533},
            {0.05364387109875679, -0.015068446286022663, 0.007801901549100876},
            {0.04138864949345589, -0.0876888781785965, -0.03816884383559227},
        },
        {
            {-0.11789976060390472, -0.11181841790676117, 0.13971757888793945},
            {-0.003594153793528676, -0.1474338173866272, 0.07139040529727936},
            {-0.14031097292900085, -0.04032370075583458, 0.04806962609291077},
        },
    },
    {
        {
            {0.0156570877879858, -0.052942000329494476, 0.07168351858854294},
            {0.01664784550666809, -0.06655725091695786, 0.07082515954971313},
            {0.07481672614812851, 0.055986206978559494, 0.06740260124206543},
        },
        {
            {0.12254627794027328, -0.1264612227678299, -0.07364596426486969},
            {0.04050185903906822, -0.24059943854808807, 0.010954667814075947},
            {0.12213777750730515, -0.21110284328460693, -0.00872652418911457},
        },
        {
            {0.027992447838187218, 0.04666058346629143, -0.051799945533275604},
            {-0.029298942536115646, 0.06433110684156418, 0.03572564572095871},
            {-0.04635177180171013, 0.06372647732496262, 0.049092166125774384},
        },
        {
            {0.029720883816480637, -0.024040739983320236, -0.06791412085294724},
            {-0.018989553675055504, -0.070866160094738, 0.001853515743277967},
            {-0.03538832068443298, 0.028126737102866173, -0.03050696849822998},
        },
        {
            {0.060035839676856995, -0.028201814740896225, -0.02805512025952339},
            {0.09846527874469757, -0.08893981575965881, -0.00457849120721221},
            {0.03359460458159447, -0.013183080591261387, 0.043023619800806046},
        },
        {
            {-0.04742883890867233, -0.07172250747680664, 0.015447556972503662},
            {-0.05904656648635864, -0.008809586986899376, 0.011400073766708374},
            {0.04221435636281967, -0.072955422103405, -0.07011985033750534},
        },
        {
            {0.18375296890735626, -0.04473065212368965, 0.1315486878156662},
            {0.05331103876233101, 0.05247137323021889, 0.14151901006698608},
            {0.13672000169754028, 0.09286899864673615, 0.209598571062088},
        },
        {
            {-0.07792586833238602, 0.05120224878191948, -0.049417149275541306},
            {0.10184646397829056, -0.17211294174194336, 0.08922886848449707},
            {0.06099783629179001, 0.20272906124591827, 0.2877580225467682},
        },
        {
            {0.040555015206336975, -0.10876012593507767, -0.18329362571239471},
            {0.027078503742814064, -0.17212101817131042, -0.21356236934661865},
            {0.06998719274997711, -0.054969560354948044, 0.02519100345671177},
        },
        {
            {-0.06039530411362648, -0.01885172724723816, 0.1951420158147812},
            {0.1130651906132698, -0.012923444621264935, -0.03090924210846424},
            {0.2006930410861969, -0.16134949028491974, 0.007427121512591839},
        },
        {
            {0.05466968193650246, -0.17797428369522095, -0.2742352783679962},
            {-0.020227573812007904, -0.1877955049276352, -0.40057894587516785},
            {0.05939152091741562, -0.10198035091161728, -0.11692296713590622},
        },
        {
            {0.013298680074512959, -0.14028137922286987, 0.2078866958618164},
            {0.040850792080163956, -0.2653690576553345, 0.25331100821495056},
            {-0.09465881437063217, 0.11527165025472641, 0.2811065912246704},
        },
        {
            {0.003252834314480424, -0.13220852613449097, -0.0006203278317116201},
            {0.15791842341423035, -0.2873227298259735, 0.23364293575286865},
            {-0.07988608628511429, -0.12245354801416397, 0.2913271188735962},
        },
        {
            {-0.09204427897930145, -0.015999864786863327, -0.2813400328159332},
            {0.039887040853500366, 0.13644765317440033, -0.2819254696369171},
            {-0.02208227477967739, 0.10103732347488403, -0.15484201908111572},
        },
        {
            {-0.13843922317028046, -0.06104583665728569, 0.06904587149620056},
            {0.11812859028577805, 0.006479404401034117, 0.01584627851843834},
            {-0.03284132108092308, 0.11986304819583893, -0.0004706357722170651},
        },
        {
            {0.1419479250907898, -0.03456359729170799, -0.3186612129211426},
            {0.05880225449800491, 0.0468723438680172, -0.23947332799434662},
            {0.018063470721244812, 0.1766536831855774, -0.09659163653850555},
        },
    },
    {
        {
            {0.025289257988333702, -0.07846471667289734, 0.07039400190114975},
            {0.008321106433868408, 0.06637384742498398, -0.022001903504133224},
            {-0.020139386877417564, -0.04011160135269165, 0.07342948019504547},
        },
        {
            {-0.24213844537734985, 0.003576455404981971, 0.1522189825773239},
            {-0.3598702549934387, 0.16219361126422882, 0.21508483588695526},
            {-0.26578617095947266, 0.1216113269329071, 0.28244978189468384},
        },
        {
            {0.037472061812877655, -0.07921209186315536, 0.03350525349378586},
            {-0.008847127668559551, 0.04142013192176819, 0.06528228521347046},
            {-0.0222938172519207, -0.027494877576828003, 0.07131841778755188},
        },
        {
            {-0.05808141827583313, -0.01921268366277218, -0.059452127665281296},
            {0.0604286715388298, -0.05360069125890732, -0.012908687815070152},
            {0.04888228699564934, -0.06595732271671295, 0.06784436106681824},
        },
        {
            {0.07867605239152908, 0.005616445094347, -0.009299305267632008},
            {-0.049461729824543, -0.032984357327222824, -0.004353473894298077},
            {0.10476347804069519, -0.012907344847917557, 0.03441644459962845},
        },
        {
            {-0.024324875324964523, -0.016971290111541748, -0.04178368300199509},
            {-0.07915350049734116, 0.07694658637046814, -0.020243218168616295},
            {-0.06783583760261536, 0.010444561950862408, 0.015002201311290264},
        },
        {
            {-0.09137383103370667, -0.14421875774860382, 0.09312966465950012},
            {-0.1867125928401947, 0.1417151242494583, 0.12354571372270584},
            {0.24411937594413757, 0.13047055900096893, 0.1322372704744339},
        },
        {
            {0.19487842917442322, 0.13543742895126343, -0.032877516001462936},
            {0.09596649557352066, 0.1275959014892578, 0.12892913818359375},
            {0.3482378125190735, 0.017026014626026154, 0.007008275017142296},
        },
        {
            {-0.3082517087459564, -0.11862648278474808, 0.009600627236068249},
            {-0.2630952298641205, -0.2950935959815979, -0.14527727663516998},
            {-0.06886877119541168, 0.029491551220417023, -0.4665318429470062},
        },
        {
            {-0.054024361073970795, 0.04765377193689346, 0.10500912368297577},
            {-0.012495219707489014, -0.015002981759607792, -0.18403731286525726},
            {-0.1300765872001648, 0.005192206706851721, -0.16782522201538086},
        },
        {
            {-0.28483709692955017, -0.1837652623653412, -0.13491009175777435},
            {-0.16229623556137085, -0.19219572842121124, -0.05552612617611885},
            {-0.21849176287651062, -0.26440170407295227, -0.035019565373659134},
        },
        {
            {0.07150589674711227, 0.1011456772685051, -0.2311514914035797},
            {0.03540833666920662, 0.08342002332210541, -0.2523472309112549},
            {0.04908375069499016, 0.10854753106832504, -0.13313846290111542},
        },
        {
            {-0.15478500723838806, 0.012173761613667011, 0.009927278384566307},
            {-0.013464652933180332, 0.1323632001876831, -0.06578139215707779},
            {-0.05394252762198448, 0.3278128206729889, 0.1218186616897583},
        },
        {
            {-0.1348518431186676, 0.05489540472626686, 0.01908155344426632},
            {-0.04418910667300224, -0.06268075108528137, 0.009902984835207462},
            {-0.0685185119509697, -0.1728224903345108, -0.0650385394692421},
        },
        {
            {0.10811897367238998, 0.11664677411317825, -0.10753227025270462},
            {-0.015570780262351036, 0.16452167928218842, -0.11614842712879181},
            {0.004981773905456066, 0.05549609288573265, 0.02468780241906643},
        },
        {
            {-0.00638836994767189, -0.03755509853363037, 0.08958928287029266},
            {-0.07239806652069092, 0.04002178832888603, 0.08353506773710251},
            {0.02796120196580887, 0.1554451882839203, 0.14272290468215942},
        },
    },
    {
        {
            {0.035598497837781906, 0.0708724856376648, 0.017578870058059692},
            {-0.042545270174741745, -0.03610328957438469, -0.06612564623355865},
            {-0.05716786906123161, 0.012181967496871948, 0.05131058022379875},
        },
        {
            {-0.0777776688337326, -0.04061849042773247, 0.27225595712661743},
            {0.3196772038936615, 0.23827198147773743, 0.1545068621635437},
            {-0.07135841995477676, 0.04404858499765396, -0.08827835321426392},
        },
        {
            {0.050344377756118774, 0.05135282129049301, -0.04541231319308281},
            {0.016458701342344284, 0.07405439019203186, 0.027814846485853195},
            {0.0007480780477635562, -0.015622168779373169, 0.06660383194684982},
        },
        {
            {0.07087530195713043, -0.06271058320999146, 0.02867985889315605},
            {0.05987752601504326, -0.06364071369171143, 0.05385637283325195},
            {0.05729800462722778, 0.04351372644305229, -0.08207526803016663},
        },
        {
            {0.002345195971429348, 0.034866370260715485, 0.08872491866350174},
            {0.03368213772773743, -0.05568144842982292, 0.04482932388782501},
            {0.020786557346582413, 0.005571582820266485, -0.0064538950100541115},
        },
        {
            {0.033478669822216034, -0.047619085758924484, -0.07431745529174805},
            {0.04418451711535454, 0.0754653736948967, -0.011915753595530987},
            {-0.034238092601299286, -0.018954187631607056, -0.024794897064566612},
        },
        {
            {-0.09575612843036652, -0.08430686593055725, 0.01666727103292942},
            {-0.0826597660779953, 0.059168800711631775, -0.05936262011528015},
            {-0.19167767465114594, -0.17994868755340576, -0.12913934886455536},
        },
        {
            {0.08584599196910858, -0.10659891366958618, 0.028960594907402992},
            {-0.0630660206079483, -0.056421469897031784, -0.12341833859682083},
            {-0.023586980998516083, -0.16862919926643372, 0.05452723801136017},
        },
        {
            {0.09371042251586914, -0.0754297748208046, 0.17411671578884125},
            {-0.18853236734867096, 0.15802618861198425, 0.223929300904274},
            {0.0067130145616829395, -0.1972627341747284, 0.25634822249412537},
        },
        {
            {-0.19154733419418335, -0.13489674031734467, 0.05263781547546387},
            {-0.30841439962387085, -0.04061773046851158, 0.12335892766714096},
            {-0.5848818421363831, -0.21928569674491882, -0.12647368013858795},
        },
        {
            {-0.006277158390730619, -0.07427499443292618, 0.06440912187099457},
            {-0.05431783199310303, 0.030661754310131073, -0.3527575135231018},
            {-0.13895027339458466, -0.40516236424446106, -0.33363068103790283},
        },
        {
            {-0.11313971877098083, -0.09399791806936264, -0.12133710086345673},
            {0.5003524422645569, 0.15728925168514252, 0.21660180389881134},
            {0.0056395442225039005, 0.03489849716424942, -0.08181878924369812},
        },
        {
            {-0.015825966373085976, 0.060231730341911316, 0.11285913735628128},
            {-0.01552764605730772, 0.1566186249256134, 0.0491819828748703},
            {-0.4223281443119049, -0.520445704460144, -0.2669300138950348},
        },
        {
            {0.20787383615970612, -0.1321909874677658, -0.2338443100452423},
            {0.08212590217590332, -0.2438410073518753, -0.36808061599731445},
            {0.1613529771566391, -0.11306720972061157, -0.25161808729171753},
        },
        {
            {-0.017440155148506165, 0.0968933179974556, -0.08374479413032532},
            {0.08090299367904663, 0.035887710750103, 0.011277972720563412},
            {0.03420836105942726, -0.03961533308029175, -0.03380125015974045},
        },
        {
            {0.04930613562464714, 0.04984940215945244, -0.19082722067832947},
            {-0.052777249366045, 0.0005697959568351507, -0.05202313885092735},
            {0.2428104132413864, 0.005366546101868153, -0.24151372909545898},
        },
    },
    {
        {
            {0.07948501408100128, 0.04703003168106079, -0.06850125640630722},
            {0.0009267628192901611, -0.0031188130378723145, 0.007133106701076031},
            {0.03853042051196098, -0.054974108934402466, 0.027375876903533936},
        },
        {
            {0.28662458062171936, 0.19342006742954254, 0.2396060824394226},
            {0.018280716612935066, -0.05270704999566078, 0.06477341800928116},
            {-0.13839463889598846, -0.14256197214126587, 0.031010637059807777},
        },
        {
            {0.045481592416763306, -0.0775861069560051, -0.0632673054933548},
            {-0.048520974814891815, -0.007428666111081839, -0.033159416168928146},
            {0.07784497737884521, -0.07848186790943146, 0.009392431005835533},
        },
        {
            {-0.06833302229642868, 0.03739402815699577, 0.07309123873710632},
            {-0.06804728507995605, 0.0007261137361638248, -0.07177235186100006},
            {0.04475470632314682, 0.06343947350978851, -0.049940407276153564},
        },
        {
            {-0.027604758739471436, 0.03212446719408035, 0.11529088765382767},
            {0.012010183185338974, -0.03162408992648125, -0.08360648155212402},
            {0.07429365068674088, -0.12869741022586823, -0.011139031499624252},
        },
        {
            {0.006770630832761526, 0.0255611352622509, -0.007057528011500835},
            {-0.0779920145869255, -0.059817682951688766, -0.031172385439276695},
            {0.05669870227575302, -0.03472713753581047, 0.02171487733721733},
        },
        {
            {-0.18716949224472046, -0.12709888815879822, -0.25731104612350464},
            {0.06683558970689774, -0.14965659379959106, -0.18115733563899994},
            {0.028497083112597466, 0.0021281696390360594, -0.02509947121143341},
        },
        {
            {-0.05136502906680107, -0.17826473712921143, -0.051569174975156784},
            {0.013949373736977577, -0.14179803431034088, 0.12572026252746582},
            {-0.21005721390247345, 0.10371791571378708, 0.08778619766235352},
        },
        {
            {0.09538328647613525, 0.14033696055412292, 0.08084338158369064},
            {-0.3875659108161926, -0.21915771067142487, -0.010891694575548172},
            {-0.3257879912853241, -0.12197288870811462, 0.07576141506433487},
        },
        {
            {-0.049748972058296204, -0.10032965242862701, -0.09946469217538834},
            {-0.07407994568347931, -0.16301843523979187, -0.1575707495212555},
            {-0.05537111312150955, -0.16035756468772888, 0.04102090373635292},
        },
        {
            {0.25053781270980835, 0.13107185065746307, 0.07326321303844452},
            {-0.1790885031223297, -0.06775069236755371, -0.05699284002184868},
            {-0.10197130590677261, -0.06973636895418167, -0.24776487052440643},
        },
        {
            {0.011453640647232533, 0.0669391006231308, 0.12934079766273499},
            {0.0860513299703598, 0.1338479220867157, 0.07188944518566132},
            {0.022316213697195053, 0.16083507239818573, -0.009057501330971718},
        },
        {
            {0.12251640856266022, 0.048244085162878036, 0.011530745774507523},
            {0.062129031866788864, -0.05834117904305458, 0.06420397013425827},
            {-0.2929927408695221, -0.16893158853054047, -0.08206683397293091},
        },
        {
            {0.013938836753368378, 0.18779464066028595, 0.21412165462970734},
            {0.01626880280673504, -0.012828784994781017, -0.04697137326002121},
            {0.26561594009399414, 0.10543548315763474, -0.17595642805099487},
        },
        {
            {0.08794794976711273, 0.03909932076931, -0.08907793462276459},
            {0.09704182296991348, 0.10804174095392227, 0.015448388643562794},
            {0.052195120602846146, -0.04531825706362724, -0.006812909618020058},
        },
        {
            {-0.06236988306045532, 0.03415258228778839, 0.05523309484124184},
            {-0.27526628971099854, 0.10821700841188431, -0.007471182849258184},
            {0.139707550406456, -0.038884084671735764, -0.20645582675933838},
        },
    },
    {
        {
            {0.009471029043197632, -0.05941016599535942, -0.07850490510463715},
            {-0.08076702803373337, 0.08314322680234909, -0.06552237272262573},
            {0.020994465798139572, -0.04213728755712509, -0.010651598684489727},
        },
        {
            {0.1470465511083603, 0.17285266518592834, -0.14906778931617737},
            {-0.04257190600037575, 0.2547794580459595, 0.24767689406871796},
            {-0.17025665938854218, 0.07726232707500458, 0.13825193047523499},
        },
        {
            {-0.06865617632865906, -0.04745928570628166, 0.01735217496752739},
            {0.05482231825590134, -0.053814083337783813, -0.04560033604502678},
            {0.07244198769330978, 0.0011019706726074219, -0.025050213560461998},
        },
        {
            {0.027240147814154625, -0.07276254892349243, -0.07660674303770065},
            {0.05822167918086052, -0.047259967774152756, 0.031060775741934776},
            {0.04148402810096741, 0.05726684257388115, 0.014235894195735455},
        },
        {
            {0.11118178814649582, 0.01169607974588871, 0.14713484048843384},
            {-0.019144726917147636, -0.03001224249601364, -0.04886327683925629},
            {0.05040067061781883, -0.004902773071080446, -0.005795247387140989},
        },
        {
            {-0.08319604396820068, 0.008601536974310875, -0.0036072335205972195},
            {-0.06336908787488937, -0.07520459592342377, 0.033323608338832855},
            {0.01020481251180172, -0.05017918348312378, 0.04558979719877243},
        },
        {
            {-0.04869471490383148, -0.10744398087263107, -0.10073179751634598},
            {-0.20729468762874603, 0.1029905304312706, -0.11851532012224197},
            {-0.29228273034095764, 0.08181826025247574, 0.037542715668678284},
        },
        {
            {-0.08291029930114746, -0.02093256451189518, -0.11611221730709076},
            {-0.10379671305418015, -0.16363145411014557, -0.148629829287529},
            {0.15760405361652374, 0.06684759259223938, -0.03860080614686012},
        },
        {
            {0.12309250235557556, 0.1704794019460678, 0.06594866514205933},
            {-0.1502242088317871, -0.07503228634595871, 0.035803649574518204},
            {0.007057670038193464, 0.1655891239643097, -0.10996554791927338},
        },
        {
            {-0.022444281727075577, -0.09697135537862778, -0.1083427295088768},
            {-0.19475938379764557, -0.12924239039421082, -0.1449081152677536},
            {-0.36889156699180603, -0.03941940516233444, -0.029119567945599556},
        },
        {
            {0.2569071650505066, 0.10047038644552231, 0.10028395801782608},
            {-0.049648698419332504, 0.23123256862163544, 0.021541263908147812},
            {-0.06126872077584267, -0.17523130774497986, -0.1764998435974121},
        },
        {
            {0.08825040608644485, -0.022483136504888535, -0.08134036511182785},
            {0.13892194628715515, 0.24783216416835785, 0.29481378197669983},
            {-0.08239568769931793, 0.04559995234012604, -0.010301564820110798},
        },
        {
            {-0.07197295129299164, -0.11773170530796051, -0.08122600615024567},
            {-0.04210935905575752, -0.007843077182769775, 0.05743314325809479},
            {-0.21000325679779053, -0.1608981043100357, -0.15999077260494232},
        },
        {
            {0.24309688806533813, 0.2326773852109909, 0.10040111839771271},
            {-0.0005411534220911562, 0.23194177448749542, 0.0664389431476593},
            {-0.08424259722232819, -0.061777111142873764, -0.048458512872457504},
        },
        {
            {0.13378189504146576, -0.0768309161067009, 0.043012432754039764},
            {-0.04207844287157059, 0.009858042933046818, -0.03121701441705227},
            {-0.0890096053481102, 0.06876272708177567, 0.014500806108117104},
        },
        {
            {0.11504310369491577, 0.07308138906955719, -0.08948594331741333},
            {-0.043510932475328445, 0.07361864298582077, -0.005839207209646702},
            {0.09202177077531815, -0.1959257870912552, 0.050077032297849655},
        },
    },
    {
        {
            {-0.057249993085861206, -0.01599748060107231, -0.052915625274181366},
            {0.03648914024233818, 0.035886477679014206, -0.03713449835777283},
            {0.011748681776225567, -0.009868989698588848, 0.05008384585380554},
        },
        {
            {-0.30864155292510986, -0.3178953230381012, 0.06567972153425217},
            {0.1912587434053421, 0.019773544743657112, -0.02636558748781681},
            {0.1520775407552719, 0.10766096413135529, 0.04395131394267082},
        },
        {
            {0.07758162915706635, 0.007564564701169729, -0.04120877385139465},
            {-0.03234326094388962, -0.02006911300122738, 0.06601878255605698},
            {0.0009529193630442023, 0.04190189763903618, -0.033131323754787445},
        },
        {
            {-0.01285620592534542, -0.03677315637469292, 0.05429442971944809},
            {0.0709211677312851, -0.024308135733008385, -0.07090222835540771},
            {-0.027737310156226158, -0.013325363397598267, -0.051647357642650604},
        },
        {
            {-0.0929601788520813, -0.07515142858028412, 0.06053272262215614},
            {-0.06442026793956757, 0.07695777714252472, -0.07550203055143356},
            {-0.09279152005910873, -0.11608416587114334, -0.06677430123090744},
        },
        {
            {0.08029540628194809, 0.02808476611971855, 0.005357146263122559},
            {0.019342144951224327, 0.05090079829096794, -0.05700857564806938},
            {-0.0043479702435433865, 0.009930819272994995, 0.009006431326270103},
        },
        {
            {-0.019207054749131203, -0.09350143373012543, 0.06214078515768051},
            {-0.19588154554367065, -0.003953084349632263, 0.09037494659423828},
            {-0.22870291769504547, -0.14696654677391052, 0.13617980480194092},
        },
        {
            {0.05965987965464592, 0.14846333861351013, 0.21674013137817383},
            {0.12663386762142181, 0.029989903792738914, 0.021788183599710464},
            {-0.08706662803888321, -0.043871935456991196, 0.10883058607578278},
        },
        {
            {0.035302869975566864, 0.13894669711589813, 0.041125886142253876},
            {0.34395158290863037, 0.058703888207674026, 0.12785673141479492},
            {-0.2135297954082489, -0.059913214296102524, -0.06962001323699951},
        },
        {
            {-0.07587753981351852, -0.22548606991767883, -0.13829302787780762},
            {-0.15338794887065887, -0.2632000148296356, -0.16534976661205292},
            {-0.16190852224826813, -0.07963601499795914, 0.11978724598884583},
        },
        {
            {0.0320357047021389, -0.014574994333088398, -0.11754041165113449},
            {0.1830412745475769, 0.27489206194877625, 0.035508353263139725},
            {-0.18730522692203522, -0.03311987966299057, -0.1885455697774887},
        },
        {
            {-0.12234776467084885, -0.18230342864990234, -0.11335700750350952},
            {-0.034639082849025726, -0.11884649842977524, -0.25322043895721436},
            {0.2458980828523636, 0.14598500728607178, -0.01553607638925314},
        },
        {
            {-0.04795307293534279, -0.28010299801826477, 0.023286769166588783},
            {-0.034032877534627914, -0.027653893455863, -0.02299974486231804},
            {0.040221113711595535, 0.06207805499434471, 0.015213130041956902},
        },
        {
            {-0.056872133165597916, 0.15103358030319214, 0.029837049543857574},
            {0.09725009649991989, 0.016223348677158356, -0.043772730976343155},
            {0.09357772767543793, -0.06233575940132141, -0.10164015740156174},
        },
        {
            {0.005379814654588699, -0.054224155843257904, 0.029625415802001953},
            {0.006828660145401955, 0.006174587644636631, 0.06050185114145279},
            {0.032303109765052795, 0.15151458978652954, -0.010977421887218952},
        },
        {
            {0.01693837344646454, 0.03889065980911255, -0.019476158544421196},
            {0.09596379846334457, 0.09218719601631165, -0.08104607462882996},
            {0.020527994260191917, 0.013334842398762703, 0.005220021121203899},
        },
    },
    {
        {
            {-0.049288034439086914, 0.07573483884334564, 0.013288050889968872},
            {0.037844590842723846, -0.0255428459495306, -0.0032858452759683132},
            {0.02252785488963127, 0.0020725131034851074, 0.07764962315559387},
        },
        {
            {-0.084265798330307, -0.04638369008898735, 0.05088459327816963},
            {-0.044837772846221924, -0.1658354550600052, 0.07200833410024643},
            {-0.0901859849691391, -0.2913857698440552, 0.12691377103328705},
        },
        {
            {-0.002287795301526785, -0.01724986359477043, 0.029889404773712158},
            {0.05314511060714722, 0.06813480705022812, 0.011598020792007446},
            {-0.02800435945391655, 0.019896119832992554, 0.025297870859503746},
        },
        {
            {0.07834476232528687, 0.013040414080023766, 0.022660773247480392},
            {0.05818749591708183, 0.021045606583356857, -0.010394662618637085},
            {0.048304080963134766, 0.021398236975073814, 0.01990295574069023},
        },
        {
            {-0.0272348765283823, 0.06423300504684448, 0.10448381304740906},
            {-0.05329694226384163, 0.06597939878702164, 0.051616739481687546},
            {0.023902948945760727, 0.0008376336772926152, 0.026375524699687958},
        },
        {
            {0.053045473992824554, 0.03718838095664978, -0.05842328071594238},
            {0.04894041270017624, -0.023391395807266235, 0.06455889344215393},
            {-0.0518832802772522, -0.02993129752576351, 0.03648209571838379},
        },
        {
            {0.06674008816480637, -0.09177108108997345, 0.127894327044487},
            {0.17965611815452576, 0.13882705569267273, 0.18657267093658447},
            {0.12303414195775986, -0.052207257598638535, -0.04951906204223633},
        },
        {
            {0.03534720465540886, 0.005051008425652981, -0.07481372356414795},
            {-0.04692992940545082, 0.09496806561946869, 0.059567756950855255},
            {0.021464351564645767, -0.01008647121489048, 0.028426773846149445},
        },
        {
            {-0.09777211397886276, -0.15493477880954742, -0.15665504336357117},
            {-0.02130659855902195, -0.3549078702926636, -0.2758105397224426},
            {-0.0622735358774662, -0.04596263915300369, -0.26236245036125183},
        },
        {
            {0.050488732755184174, -0.051093753427267075, 0.03880922496318817},
            {-0.012823936529457569, -0.07546230405569077, -0.10599552094936371},
            {-0.23526956140995026, -0.4059508144855499, -0.13153447210788727},
        },
        {
            {-0.014270489104092121, -0.12171724438667297, -0.1456502079963684},
            {-0.3899920880794525, -0.0187433622777462, 0.1627892106771469},
            {0.11082275956869125, -0.155509814620018, 0.07619717717170715},
        },
        {
            {0.0804804116487503, 0.14631880819797516, 0.04562971368432045},
            {0.002101317746564746, 0.12716726958751678, 0.13958042860031128},
            {-0.1867603212594986, 0.03491947427392006, 0.2400435209274292},
        },
        {
            {-0.03305310010910034, 0.0536251999437809, 0.06137474253773689},
            {-0.17638404667377472, 0.055206865072250366, 0.11444254219532013},
            {-0.26812440156936646, -0.05928710848093033, 0.1303901970386505},
        },
        {
            {-0.09705790132284164, 0.04359394311904907, 0.04501322656869888},
            {-0.06515530496835709, -0.21399907767772675, 0.18708083033561707},
            {0.010116953402757645, 0.032484181225299835, -0.04196055233478546},
        },
        {
            {0.07240766286849976, 0.05592718347907066, 0.083504319190979},
            {0.05609783157706261, 0.04684094712138176, 0.02920195832848549},
            {0.04543667659163475, 0.015926383435726166, -0.020259307697415352},
        },
        {
            {0.08879866451025009, 0.03992175683379173, -0.0856090560555458},
            {0.05232840031385422, -0.0561525784432888, 0.018705561757087708},
            {0.10362233221530914, -0.06914808601140976, -0.07775955647230148},
        },
    },
    {
        {
            {0.00197040056809783, -0.0752752423286438, -0.062306057661771774},
            {0.021740227937698364, 0.04631111025810242, -0.03938102722167969},
            {0.06738954037427902, -0.05197839066386223, 0.01228775642812252},
        },
        {
            {-0.13803216814994812, 0.03001941554248333, 0.09377295523881912},
            {-0.23153623938560486, 0.012768175452947617, 0.07581572979688644},
            {-0.10579165071249008, 0.012209235690534115, 0.18168121576309204},
        },
        {
            {-0.05854184553027153, 0.0232387688010931, 0.06187557429075241},
            {0.05529891699552536, -0.07947871088981628, -0.0721101388335228},
            {0.05897603556513786, -0.0017902156105265021, 0.011560837738215923},
        },
        {
            {-0.008853048086166382, 0.08130186051130295, -0.004236271139234304},
            {-0.04375439137220383, 0.04119955748319626, -0.01961241289973259},
            {-0.08048233389854431, 0.05009027570486069, -0.07763238251209259},
        },
        {
            {-0.03951552137732506, -0.023758837953209877, -0.1415930539369583},
            {0.08480829745531082, 0.011693849228322506, -0.009343438781797886},
            {-0.01122999843209982, 0.03623562678694725, -0.019727619364857674},
        },
        {
            {0.02399688959121704, -0.009849807247519493, -0.04576709121465683},
            {0.039253395050764084, -0.07865612953901291, 0.0376722626388073},
            {-0.056542377918958664, -0.051857829093933105, 0.07583524286746979},
        },
        {
            {0.040521468967199326, 0.16436733305454254, 0.11199252307415009},
            {-0.0064483326859772205, 0.22799445688724518, 0.1300581395626068},
            {-0.1543697863817215, -0.02285352349281311, 0.10064811259508133},
        },
        {
            {-0.006162488367408514, -0.24051953852176666, 0.04371685907244682},
            {0.09971674531698227, -0.005348195321857929, 0.03122946247458458},
            {0.011429347097873688, 0.18336448073387146, -0.04060271382331848},
        },
        {
            {-0.012154272757470608, -0.07920631766319275, -0.05499736964702606},
            {-0.03502959385514259, -0.08822868764400482, -0.24758480489253998},
            {0.10775256901979446, 0.010965332388877869, -0.13960658013820648},
        },
        {
            {-0.04527461901307106, 0.0727069154381752, -0.10470154881477356},
            {-0.11157160997390747, 0.0575023889541626, -0.27109795808792114},
            {-0.304888516664505, -0.19181445240974426, -0.04436419531702995},
        },
        {
            {0.003973926417529583, -0.035756487399339676, -0.05571998283267021},
            {0.06350352615118027, -0.022699320688843727, 0.16862952709197998},
            {-0.01336598489433527, -0.005787560250610113, -0.07628849893808365},
        },
        {
            {0.1927233636379242, 0.12829618155956268, -0.2422504723072052},
            {0.1329643726348877, 0.09834140539169312, -0.03789352625608444},
            {-0.1886344999074936, 0.06462603062391281, -0.012475271709263325},
        },
        {
            {-0.049312740564346313, 0.10899747908115387, -0.10687857121229172},
            {-0.0750066265463829, 0.05462893471121788, -0.035643868148326874},
            {0.02764899656176567, 0.04661582410335541, 0.10355253517627716},
        },
        {
            {0.03001822903752327, 0.04673701152205467, 0.32734397053718567},
            {0.14785343408584595, -0.12089446187019348, 0.08068102598190308},
            {-0.06569013744592667, -0.09752041846513748, 0.06910140812397003},
        },
        {
            {0.0017749274848029017, 0.007055636495351791, -0.04509318992495537},
            {0.14508739113807678, 0.03951309621334076, 0.05616515502333641},
            {-0.07831360399723053, -0.07494897395372391, 0.12178727984428406},
        },
        {
            {0.03584980219602585, 0.17173968255519867, 0.043508391827344894},
            {0.12919548153877258, -0.155399888753891, 0.13673333823680878},
            {0.04789760708808899, -0.08453789353370667, 0.06518956273794174},
        },
    },
    {
        {
            {-0.06156276911497116, -0.048119157552719116, -0.025509586557745934},
            {-0.015586833469569683, 0.04702853411436081, 0.0062239570543169975},
            {0.0017159979324787855, -0.08276146650314331, -0.07179649919271469},
        },
        {
            {-0.10135238617658615, 0.19995570182800293, -0.09845791757106781},
            {-0.08895822614431381, 0.20281660556793213, -0.07498237490653992},
            {0.10904165357351303, 0.14196987450122833, -0.06117560341954231},
        },
        {
            {0.01255283784121275, 0.07351985573768616, 0.0714925229549408},
            {0.003225793596357107, 0.04370671510696411, -0.08278436958789825},
            {-0.0327066108584404, -0.03237215802073479, 0.0820709615945816},
        },
        {
            {-0.02425963804125786, 0.03145023435354233, 0.06419919431209564},
            {-0.0011178752174600959, -0.0018718838691711426, -0.06201552599668503},
            {-0.01590782403945923, 0.026511192321777344, 0.038210056722164154},
        },
        {
            {-0.032244324684143066, 0.0198223777115345, 0.02964307740330696},
            {-0.08170179277658463, 0.00024744917755015194, -0.0680825337767601},
            {-0.012094009667634964, -0.05856087803840637, 0.018766187131404877},
        },
        {
            {0.0807415246963501, 0.003677934408187866, 0.014951626770198345},
            {-0.036471687257289886, -0.023802896961569786, -0.05008264631032944},
            {0.05471603199839592, 0.024061989039182663, -0.061260879039764404},
        },
        {
            {0.1679195761680603, 0.10731222480535507, 0.17371441423892975},
            {0.00501367449760437, 0.21462121605873108, 0.05152050778269768},
            {0.03578196093440056, 0.20107543468475342, 0.1339215189218521},
        },
        {
            {0.06173926219344139, 0.09555444121360779, 0.1257910132408142},
            {0.037870462983846664, -0.18970318138599396, -0.06140449270606041},
            {0.08756198734045029, 0.09975080192089081, 0.12029732763767242},
        },
        {
            {-0.17093080282211304, -0.1937709003686905, -0.2241899073123932},
            {-0.009450753219425678, -0.2766478359699249, -0.16567856073379517},
            {0.2755025029182434, -0.3512779176235199, -0.08011440932750702},
        },
        {
            {0.024681853130459785, 0.027410876005887985, -0.15472626686096191},
            {0.018472997471690178, 0.0038336184807121754, -0.199580118060112},
            {0.14745453000068665, 0.18403427302837372, 0.12291864305734634},
        },
        {
            {-0.04066600278019905, -0.043455883860588074, -0.0010113504249602556},
            {-0.1793471723794937, -0.013512890785932541, 0.08134134858846664},
            {-0.06385642290115356, 0.06782428920269012, -0.011073880828917027},
        },
        {
            {0.2036593109369278, -0.07249286025762558, -0.1942497044801712},
            {-0.008123409003019333, 0.08796260505914688, -0.3675549030303955},
            {-0.08293326199054718, -0.05077265575528145, -0.052827637642621994},
        },
        {
            {0.04846326634287834, 0.12895390391349792, -0.08836077898740768},
            {0.14770564436912537, 0.09091611951589584, 0.06649137288331985},
            {0.16114243865013123, 0.21778663992881775, -0.004819158464670181},
        },
        {
            {-0.0197904072701931, 0.04277880862355232, 0.1820991337299347},
            {-0.2046847641468048, 0.17852002382278442, 0.2416960895061493},
            {-0.08921211957931519, -0.0912872701883316, 0.02987620048224926},
        },
        {
            {0.21190805733203888, 0.050861481577157974, 0.02955476939678192},
            {0.05806273594498634, 0.09855155646800995, 0.10043064504861832},
            {0.0029647978954017162, 0.1442752480506897, 0.17297564446926117},
        },
        {
            {-0.10825169831514359, 0.04550090432167053, 0.08376136422157288},
            {-0.33596688508987427, -0.08778208494186401, 0.06950103491544724},
            {-0.11080195009708405, -0.13456377387046814, -0.14733369648456573},
        },
    },
    {
        {
            {0.004631400108337402, -0.052136074751615524, 0.08287309855222702},
            {0.054188989102840424, -0.052904993295669556, 0.06743006408214569},
            {0.03989419341087341, 0.07046126574277878, -0.023691803216934204},
        },
        {
            {-0.01794980652630329, 0.16734260320663452, 0.0022640277165919542},
            {-0.03778446093201637, 0.037040285766124725, -0.05594293773174286},
            {0.07542510330677032, 0.03896484524011612, -0.20826871693134308},
        },
        {
            {-0.024644693359732628, -0.03776026889681816, -0.050119154155254364},
            {0.009587685577571392, -0.0055342018604278564, 0.05222915858030319},
            {-0.0033824245911091566, -0.020546874031424522, 0.048334162682294846},
        },
        {
            {-0.03536422178149223, -0.0050069293938577175, -0.031379275023937225},
            {0.06698191165924072, -0.08081787079572678, 0.021780412644147873},
            {0.036489009857177734, 0.03792867064476013, 0.014475315809249878},
        },
        {
            {-0.08490168303251266, 0.044605325907468796, -0.04837966337800026},
            {-0.006379196420311928, 0.060937199741601944, -0.029401224106550217},
            {0.09843160212039948, -0.03655022755265236, -0.062212664633989334},
        },
        {
            {0.03901403397321701, -0.04611878842115402, 0.075220987200737},
            {-0.014028599485754967, 0.06838817894458771, -0.05515223741531372},
            {-0.012695054523646832, 0.05542287230491638, -0.03943368047475815},
        },
        {
            {-0.09348075091838837, 0.08035644143819809, 0.20427946746349335},
            {-0.03912826627492905, -0.0034164779353886843, 0.11915304511785507},
            {0.05256207659840584, -0.0738883912563324, 0.07704763859510422},
        },
        {
            {0.21443462371826172, 0.12857244908809662, 0.017548441886901855},
            {0.16379016637802124, 0.06963162869215012, 0.034652527421712875},
            {-0.02258533239364624, 0.18549224734306335, -0.10412822663784027},
        },
        {
            {-0.006002281792461872, -0.10978565365076065, -0.16429249942302704},
            {0.09924950450658798, 0.177900031208992, -0.2934088408946991},
            {0.14795620739459991, 0.02657139301300049, -0.212738499045372},
        },
        {
            {-0.0004732201632577926, 0.13451726734638214, 0.15328559279441833},
            {-0.025588812306523323, 0.29925206303596497, 0.24167971312999725},
            {0.06639783829450607, 0.09128246456384659, 0.19030626118183136},
        },
        {
            {-0.08778627216815948, -0.0015004822053015232, -0.4288591146469116},
            {0.019675852730870247, -0.36581873893737793, -0.2161085605621338},
            {-0.17587047815322876, -0.2333478480577469, -0.19367507100105286},
        },
        {
            {0.07807774096727371, -0.17138385772705078, 0.01273142360150814},
            {-0.01751851662993431, -0.01522975042462349, -0.27707207202911377},
            {0.1077127680182457, -0.0788034126162529, -0.2569306194782257},
        },
        {
            {0.14139814674854279, 0.20784342288970947, 0.08179919421672821},
            {0.2153126448392868, 0.20835478603839874, -0.037584107369184494},
            {0.11188964545726776, -0.031912993639707565, -0.22247207164764404},
        },
        {
            {0.007140357047319412, -0.26485875248908997, -0.027029974386096},
            {-0.3297654092311859, -0.14601950347423553, 0.10543648898601532},
            {-0.06428296864032745, -0.2973935902118683, -0.0028628285508602858},
        },
        {
            {0.07316125184297562, -0.046260349452495575, 0.0808289647102356},
            {0.006031043361872435, 0.030126355588436127, 0.10875456780195236},
            {0.05578001216053963, 0.05404005944728851, 0.01739056594669819},
        },
        {
            {-0.05767376348376274, -0.024050142616033554, -0.05124548450112343},
            {-0.05930483713746071, -0.0370720773935318, -0.003658922389149666},
            {-0.20821616053581238, -0.1009763553738594, -0.03426935523748398},
        },
    },
    {
        {
